<?xml version="1.0"?>
<opencv_storage>
<opencv_ml_svm>
  <format>3</format>
  <svmType>C_SVC</svmType>
  <kernel>
    <type>LINEAR</type></kernel>
  <C>1.</C>
  <term_criteria><iterations>100</iterations></term_criteria>
  <var_count>136</var_count>
  <class_count>3</class_count>
  <class_labels type_id="opencv-matrix">
    <rows>3</rows>
    <cols>1</cols>
    <dt>i</dt>
    <data>
      11 12 13</data></class_labels>
  <sv_total>3</sv_total>
  <support_vectors>
    <_>
      4.58634878e-03 -5.69933560e-03 4.32304107e-03 -5.27118705e-03
      8.59149848e-04 -4.82401717e-03 -3.96774645e-04 -4.75776428e-03
      2.92504206e-03 -4.52778535e-03 7.49625440e-04 -5.59720397e-03
      -1.84221240e-03 -1.33339630e-03 -7.70097191e-04 2.48927536e-04
      -4.92218602e-03 1.68257183e-03 -7.29458546e-03 2.07653595e-03
      -2.76857847e-03 3.73944337e-03 -1.32635667e-03 4.46677860e-03
      1.92035368e-04 3.56194866e-03 -1.99900951e-05 2.75835022e-03
      4.17663204e-03 3.32732778e-03 4.93495725e-03 9.15186189e-04
      4.25211666e-03 -4.29256260e-03 7.92319886e-04 -2.41976115e-03
      -1.48805033e-03 -7.36711721e-04 -3.04336264e-03 -6.44449203e-04
      -4.38205851e-03 1.64127632e-05 -7.38664158e-03 1.86742330e-03
      4.90745413e-04 3.29225720e-03 -7.34504487e-04 1.53671415e-03
      -2.82466435e-03 2.53632134e-05 -8.87563627e-04 2.01398088e-03
      -1.72404048e-03 9.95095354e-04 -1.64661254e-03 4.41591861e-03
      -2.57186149e-03 5.29483147e-03 -2.47307308e-03 8.26125126e-03
      -4.09706635e-03 8.97231977e-03 -2.34708237e-03 1.88760506e-03
      -3.92443966e-03 2.87568313e-03 -2.87302956e-03 3.66122485e-03
      -3.37603083e-03 1.96060375e-03 9.97883690e-05 2.75955931e-03
      2.57251877e-03 -2.43344181e-03 2.45189923e-03 -3.26062227e-03
      3.76746315e-03 -2.78749643e-03 5.73320501e-03 1.08190905e-03
      2.87328428e-03 -3.17501905e-03 3.32438853e-03 -3.38418619e-03
      -3.88985197e-03 1.55080378e-03 -5.24123386e-03 -5.82920795e-04
      -4.28611645e-03 -1.21189782e-03 -3.99801042e-03 -9.47674154e-04
      -3.60851013e-03 -1.21683674e-03 -4.43695625e-03 -5.21360431e-04
      -7.02950498e-03 -1.90486684e-02 -1.33301772e-03 -4.57181456e-03
      6.29580463e-04 4.01080959e-03 7.93059298e-05 1.95636158e-03
      2.25637481e-03 3.56134027e-03 7.07278680e-03 -3.30209662e-03
      9.20479652e-03 -1.56235509e-02 8.01918097e-03 -6.78835437e-04
      3.52912815e-03 8.82739760e-03 1.26668566e-03 8.73354543e-03
      -1.13642942e-04 6.47447538e-03 -1.30814221e-03 -1.86602457e-03
      -4.33971221e-03 -1.36179551e-02 4.07337466e-05 -4.06605750e-03
      -5.31814294e-05 -3.38962325e-03 2.12560198e-03 -4.42727003e-03
      1.17795588e-02 -1.24747017e-02 3.46576958e-03 1.43440831e-02
      1.91296136e-03 1.50190638e-02 6.07819587e-04 1.22554051e-02</_>
    <_>
      5.59484493e-03 -4.71502310e-03 4.17568907e-03 -4.82123625e-03
      2.96419580e-03 -4.61477414e-03 8.50918936e-04 -4.95686382e-03
      8.92862969e-04 -5.17945271e-03 -6.33483694e-04 -5.62986452e-03
      -8.05615215e-04 -5.06418338e-03 -9.23844054e-04 -2.32563936e-03
      -1.31890981e-03 -6.19693252e-04 -2.34022806e-03 -1.55887299e-03
      -1.53775176e-03 -1.74852705e-03 -1.43064919e-03 -1.83763623e-03
      -2.81027082e-04 -2.44509429e-03 -1.01204973e-03 -1.88058184e-03
      -1.61973445e-03 -2.43885000e-03 -1.86398078e-03 -3.84109048e-03
      -2.79495236e-03 -5.31502720e-03 7.78321642e-04 -1.53692509e-03
      -5.81840277e-06 -9.26112698e-04 -1.16519129e-03 3.20162624e-04
      -2.05942686e-03 5.72167512e-04 -3.88378301e-03 2.16631219e-03
      2.78672972e-03 2.11987342e-03 3.22639447e-04 -7.07161264e-04
      -9.08920658e-04 -1.34250801e-03 -1.36506953e-03 -1.02140277e-03
      -2.19642185e-03 -1.13202771e-03 -4.27241815e-04 3.19658284e-04
      -6.53165975e-04 2.23075110e-03 -1.22709083e-03 4.07978240e-03
      -1.71128265e-03 5.12415031e-03 -9.68394452e-04 1.24618609e-03
      -7.17912626e-04 2.60421331e-03 -9.84792016e-04 3.05135921e-03
      -1.11004489e-03 2.30337749e-03 -1.30432309e-03 1.63166376e-03
      6.86905289e-04 -1.23828836e-03 3.09580762e-04 -1.51299371e-03
      1.76506481e-04 -2.51299090e-04 8.09257501e-04 9.49561421e-04
      -6.20459614e-04 -7.45557336e-05 -2.90847092e-04 -8.18353903e-04
      -1.35547679e-03 1.47666573e-03 -1.70392089e-03 -1.48778869e-04
      -1.58320984e-03 -2.61598820e-04 -1.67342729e-03 -5.62204688e-04
      -1.03600591e-03 -7.19836971e-04 -1.70392089e-03 -5.55419479e-04
      -5.99428592e-03 -5.68491872e-03 -3.29378177e-03 -5.69218188e-04
      -2.36267434e-03 1.65626977e-03 2.22497518e-04 1.71651307e-03
      2.75661168e-03 2.03633890e-03 5.17054275e-03 -9.43366205e-04
      6.37138356e-03 -5.79742528e-03 6.27338048e-03 1.98506098e-03
      3.29197873e-03 5.75245311e-03 6.56684802e-04 6.93282578e-03
      -2.42461963e-03 6.10885210e-03 -4.02249675e-03 1.65186625e-03
      -4.84169973e-03 -3.82041838e-03 -1.44007674e-03 3.05918162e-04
      1.56802867e-04 3.04183428e-04 2.75661168e-03 -2.65511539e-04
      6.82927528e-03 -3.15940473e-03 3.61559517e-03 6.10629655e-03
      4.45414684e-04 6.26903586e-03 -1.34137424e-03 5.00917016e-03</_>
    <_>
      6.73217559e-03 -3.33408942e-03 5.13508962e-03 -3.92404525e-03
      2.76912982e-03 -2.75706034e-03 -9.39921301e-04 -3.57317785e-03
      1.29855494e-03 -4.13701544e-03 2.90796452e-04 -5.85113559e-03
      2.19299807e-03 -8.32845271e-03 1.25462399e-03 -3.53416288e-03
      1.88645616e-03 -2.22075894e-03 -2.41596275e-03 -3.73317348e-03
      -4.06180182e-03 -3.49653885e-03 -6.62246253e-03 -3.58021678e-03
      -3.49198165e-03 -4.82646469e-03 -5.85066248e-03 -1.82189792e-03
      -8.02107155e-03 -3.38374940e-03 -6.21961150e-03 -6.00265898e-03
      -9.32611059e-03 -7.78576266e-03 3.98031465e-04 -3.48471710e-03
      3.73576739e-04 -2.65321881e-03 -2.04814319e-03 3.17751517e-04
      -4.16750321e-03 -7.56498019e-04 -7.70525122e-03 1.04028522e-03
      6.55807834e-03 2.34702532e-03 6.21149375e-04 -4.03920608e-03
      -2.35962006e-03 -5.98343462e-03 -1.92216563e-03 -4.92955605e-03
      -4.10637865e-03 -5.48071321e-03 -1.50338281e-03 -2.23009172e-03
      -9.03965556e-04 1.61242287e-03 -1.83668546e-03 5.00234077e-03
      -8.20189161e-05 8.35294090e-03 4.51623258e-04 3.94343492e-03
      1.32485561e-03 6.53619505e-03 3.14120087e-04 6.11550035e-03
      -5.66796225e-04 4.16952278e-03 -3.24474601e-03 3.19479080e-03
      9.33551521e-04 -1.45955069e-03 -6.07782218e-04 3.15637211e-04
      -3.09636700e-03 1.35036441e-03 -2.52099428e-03 2.67285062e-03
      -3.29539645e-03 1.71555881e-03 -2.20941706e-03 3.63540574e-04
      1.28295284e-03 1.10923022e-03 -3.78027093e-04 -5.43904258e-04
      -1.80237097e-04 -1.51801133e-03 -3.21248686e-03 -1.90923945e-03
      2.90972966e-04 -1.87157525e-03 1.13926805e-03 -2.04982236e-03
      -1.04627376e-02 -3.76687059e-03 -7.45138526e-03 -4.84763557e-04
      -5.88387437e-03 9.73957300e-04 1.20035396e-03 2.98368977e-03
      6.99953921e-03 1.47969672e-03 1.09669035e-02 -1.02812052e-03
      1.40050706e-02 -8.52585677e-03 1.48781873e-02 3.05105420e-03
      1.02026556e-02 9.98309441e-03 1.59267045e-03 1.22477300e-02
      -3.68139171e-03 1.25286728e-02 -8.32859892e-03 6.71976898e-03
      -8.81746784e-03 -8.46824434e-04 -4.59205732e-03 2.65916390e-03
      6.21232030e-04 1.92542467e-03 7.75289210e-03 2.10539089e-04
      1.36044901e-02 -3.86743364e-03 9.55216121e-03 3.66546563e-03
      1.55119121e-03 3.81010375e-03 -3.89552605e-03 4.84687509e-03</_></support_vectors>
  <uncompressed_sv_total>67</uncompressed_sv_total>
  <uncompressed_support_vectors>
    <_>
      34. 78. 32. 108. 34. 140. 38. 170. 46. 200. 60. 226. 80. 250. 108.
      270. 142. 278. 178. 272. 210. 254. 236. 232. 256. 204. 266. 176.
      272. 146. 274. 114. 276. 80. 48. 64. 62. 46. 86. 42. 112. 46. 134.
      58. 170. 56. 192. 46. 216. 42. 240. 48. 254. 66. 150. 82. 148.
      104. 146. 124. 144. 144. 118. 158. 132. 162. 146. 166. 160. 164.
      176. 160. 74. 84. 88. 78. 102. 80. 118. 86. 102. 88. 88. 86. 184.
      88. 198. 82. 212. 82. 226. 86. 212. 90. 198. 90. 86. 186. 112.
      184. 132. 182. 146. 186. 164. 182. 184. 184. 208. 186. 186. 208.
      164. 218. 148. 220. 130. 218. 110. 208. 96. 188. 132. 192. 146.
      194. 164. 192. 200. 188. 164. 202. 148. 204. 132. 200.</_>
    <_>
      30. 78. 30. 108. 32. 138. 36. 168. 44. 198. 58. 226. 80. 250. 108.
      270. 142. 278. 178. 272. 210. 252. 236. 230. 256. 200. 264. 172.
      270. 140. 274. 110. 276. 78. 46. 62. 62. 44. 86. 42. 110. 46. 130.
      58. 168. 58. 188. 46. 212. 42. 234. 46. 250. 62. 148. 82. 146.
      102. 146. 122. 144. 144. 118. 158. 130. 162. 144. 166. 158. 162.
      174. 160. 72. 82. 88. 78. 102. 80. 116. 86. 100. 86. 86. 86. 182.
      88. 196. 82. 210. 80. 224. 84. 212. 88. 198. 88. 86. 184. 110.
      182. 130. 180. 144. 184. 162. 182. 184. 184. 208. 186. 186. 208.
      164. 218. 144. 220. 128. 218. 108. 208. 94. 188. 128. 192. 144.
      194. 162. 192. 200. 188. 164. 200. 146. 202. 130. 200.</_>
    <_>
      38. 82. 36. 110. 36. 140. 38. 170. 46. 198. 60. 226. 80. 250. 108.
      270. 142. 276. 178. 272. 210. 254. 236. 232. 256. 206. 268. 176.
      272. 148. 276. 118. 278. 90. 46. 70. 62. 50. 86. 46. 112. 50. 134.
      60. 168. 60. 190. 48. 216. 44. 240. 50. 256. 70. 148. 84. 146.
      106. 144. 126. 142. 146. 116. 158. 128. 164. 144. 168. 158. 164.
      174. 162. 74. 84. 90. 80. 104. 82. 118. 88. 102. 88. 88. 88. 184.
      90. 198. 82. 212. 82. 226. 88. 212. 90. 198. 90. 86. 186. 110.
      184. 128. 182. 144. 186. 162. 182. 184. 184. 208. 188. 184. 210.
      162. 220. 144. 220. 126. 218. 108. 210. 94. 188. 128. 192. 144.
      194. 162. 194. 200. 190. 164. 202. 144. 204. 128. 200.</_>
    <_>
      2.41934991e+00 6.29031982e+01 2.41934991e+00 9.91936035e+01
      4.83870983e+00 1.33065002e+02 9.67741966e+00 1.69354996e+02
      1.93547993e+01 2.05645004e+02 3.87097015e+01 2.39516006e+02
      6.53226013e+01 2.68548004e+02 9.91936035e+01 2.90322998e+02
      1.40322998e+02 2.97580994e+02 1.81451996e+02 2.90322998e+02
      2.20160995e+02 2.68548004e+02 2.46774002e+02 2.41934998e+02
      2.70967987e+02 2.10483994e+02 2.85484009e+02 1.76613007e+02
      2.90322998e+02 1.40322998e+02 2.92742004e+02 1.04031998e+02
      2.92742004e+02 6.77418976e+01 2.17742004e+01 4.59677010e+01
      4.11290016e+01 2.17742004e+01 7.01613007e+01 1.69354992e+01
      9.91936035e+01 2.17742004e+01 1.28225998e+02 3.38709984e+01
      1.69354996e+02 3.38709984e+01 1.95968002e+02 1.93547993e+01 225.
      1.69354992e+01 2.54031998e+02 2.41935005e+01 2.73386993e+02
      4.83871002e+01 1.47580994e+02 6.29031982e+01 1.45160995e+02
      8.70968018e+01 1.45160995e+02 1.13709999e+02 1.42742004e+02
      1.37903000e+02 1.08871002e+02 1.54839005e+02 1.25806000e+02
      1.59677002e+02 1.42742004e+02 1.64516006e+02 1.59677002e+02
      1.62097000e+02 1.79031998e+02 1.57257996e+02 5.56451988e+01
      6.53226013e+01 7.25805969e+01 5.80644989e+01 8.95160980e+01
      6.04838982e+01 1.06452003e+02 7.01613007e+01 8.95160980e+01
      7.01613007e+01 7.01613007e+01 7.01613007e+01 1.88710007e+02
      7.25805969e+01 2.05645004e+02 6.29031982e+01 2.22580994e+02
      6.29031982e+01 2.39516006e+02 6.77418976e+01 2.22580994e+02
      7.25805969e+01 2.05645004e+02 7.25805969e+01 6.77418976e+01
      1.88710007e+02 9.91936035e+01 1.86289993e+02 1.23387001e+02
      1.83871002e+02 1.45160995e+02 1.88710007e+02 1.64516006e+02
      1.83871002e+02 1.91128998e+02 1.86289993e+02 2.15322998e+02
      1.91128998e+02 1.91128998e+02 2.17742004e+02 1.64516006e+02
      2.27419006e+02 1.42742004e+02 2.29839005e+02 1.20968002e+02
      2.27419006e+02 9.43547974e+01 2.17742004e+02 7.74194031e+01
      1.91128998e+02 1.23387001e+02 1.95968002e+02 1.42742004e+02
      1.98386993e+02 1.64516006e+02 1.95968002e+02 2.08065002e+02
      1.93548004e+02 1.64516006e+02 2.10483994e+02 1.42742004e+02
      2.12903000e+02 1.20968002e+02 2.08065002e+02</_>
    <_>
      1.20967999e+01 5.80644989e+01 9.67741966e+00 9.19355011e+01
      1.45160999e+01 1.30645004e+02 1.69354992e+01 1.66934998e+02
      2.66128998e+01 2.05645004e+02 4.59677010e+01 2.39516006e+02
      7.25805969e+01 2.68548004e+02 1.11290001e+02 2.92742004e+02
      1.52419006e+02 300. 1.95968002e+02 2.92742004e+02 2.32257996e+02
      2.68548004e+02 2.58871002e+02 2.39516006e+02 2.80644989e+02
      2.08065002e+02 2.92742004e+02 1.71774002e+02 2.97580994e+02
      1.37903000e+02 300. 1.01612999e+02 300. 6.77418976e+01
      3.38709984e+01 4.11290016e+01 5.32257996e+01 2.17742004e+01
      8.46773987e+01 1.69354992e+01 1.13709999e+02 2.17742004e+01
      1.40322998e+02 3.62902985e+01 1.86289993e+02 3.62902985e+01
      2.10483994e+02 2.41935005e+01 2.37097000e+02 1.93547993e+01
      2.63709991e+02 2.66128998e+01 2.80644989e+02 4.59677010e+01
      1.62097000e+02 6.53226013e+01 1.59677002e+02 8.95160980e+01
      1.59677002e+02 1.13709999e+02 1.57257996e+02 1.40322998e+02
      1.23387001e+02 1.57257996e+02 1.40322998e+02 1.62097000e+02
      1.57257996e+02 1.66934998e+02 1.74194000e+02 1.62097000e+02
      1.88710007e+02 1.59677002e+02 6.77418976e+01 6.53226013e+01
      8.46773987e+01 5.80644989e+01 1.04031998e+02 6.04838982e+01
      1.20968002e+02 7.01613007e+01 1.01612999e+02 7.01613007e+01
      8.46773987e+01 6.77418976e+01 2.00806000e+02 7.25805969e+01
      2.17742004e+02 6.29031982e+01 2.34677002e+02 6.29031982e+01
      2.51613007e+02 7.01613007e+01 2.34677002e+02 7.25805969e+01
      2.17742004e+02 7.25805969e+01 7.98386993e+01 1.88710007e+02
      1.08871002e+02 1.86289993e+02 1.35483994e+02 1.86289993e+02
      1.54839005e+02 1.91128998e+02 1.76613007e+02 1.86289993e+02
      2.00806000e+02 1.88710007e+02 2.27419006e+02 1.93548004e+02
      2.03225998e+02 2.17742004e+02 1.76613007e+02 2.29839005e+02
      1.54839005e+02 2.32257996e+02 1.33065002e+02 2.27419006e+02
      1.06452003e+02 2.17742004e+02 8.95160980e+01 1.93548004e+02
      1.35483994e+02 1.98386993e+02 1.54839005e+02 2.00806000e+02
      1.76613007e+02 1.98386993e+02 2.17742004e+02 1.95968002e+02
      1.76613007e+02 2.10483994e+02 1.54839005e+02 2.12903000e+02
      1.35483994e+02 2.08065002e+02</_>
    <_>
      16. 78. 14. 108. 16. 136. 18. 166. 26. 196. 42. 226. 64. 250. 94.
      272. 126. 280. 160. 274. 192. 254. 216. 232. 236. 204. 248. 176.
      252. 146. 254. 118. 254. 90. 36. 64. 52. 48. 76. 44. 102. 50. 124.
      62. 156. 62. 178. 50. 202. 46. 226. 52. 240. 72. 138. 84. 136.
      106. 136. 126. 134. 146. 106. 160. 120. 164. 134. 170. 148. 166.
      162. 164. 64. 84. 78. 80. 90. 82. 106. 88. 90. 88. 76. 86. 172.
      92. 186. 86. 198. 86. 212. 90. 198. 92. 186. 92. 70. 186. 94. 182.
      116. 182. 132. 188. 150. 184. 170. 186. 192. 190. 170. 214. 148.
      224. 130. 224. 112. 222. 90. 212. 78. 188. 114. 192. 132. 196.
      150. 194. 186. 192. 150. 208. 132. 210. 114. 206.</_>
    <_>
      -1.20967999e+01 5.80644989e+01 -1.69354992e+01 9.19355011e+01
      -1.69354992e+01 1.28225998e+02 -1.20967999e+01 1.64516006e+02
      -4.83870983e+00 2.03225998e+02 1.20967999e+01 2.37097000e+02
      4.11290016e+01 2.66128998e+02 75. 2.90322998e+02 1.16128998e+02
      300. 1.57257996e+02 2.92742004e+02 1.95968002e+02 2.70967987e+02
      225. 2.44354996e+02 2.49194000e+02 2.12903000e+02 2.63709991e+02
      1.79031998e+02 2.70967987e+02 1.45160995e+02 2.73386993e+02
      1.08871002e+02 2.73386993e+02 75. 1.20967999e+01 3.87097015e+01
      3.38709984e+01 2.17742004e+01 6.29031982e+01 1.93547993e+01
      9.19355011e+01 2.41935005e+01 1.16128998e+02 3.87097015e+01
      1.57257996e+02 3.87097015e+01 1.81451996e+02 2.66128998e+01
      2.10483994e+02 2.17742004e+01 2.39516006e+02 2.90323009e+01
      2.56451996e+02 5.08064995e+01 1.35483994e+02 6.77418976e+01
      1.30645004e+02 9.19355011e+01 1.28225998e+02 1.16128998e+02
      1.25806000e+02 1.40322998e+02 9.19355011e+01 1.57257996e+02
      1.08871002e+02 1.62097000e+02 1.25806000e+02 1.69354996e+02
      1.42742004e+02 1.64516006e+02 1.62097000e+02 1.62097000e+02
      4.35484009e+01 6.53226013e+01 6.29031982e+01 6.04838982e+01
      7.98386993e+01 6.29031982e+01 9.67742004e+01 7.25805969e+01
      7.74194031e+01 7.01613007e+01 6.04838982e+01 7.01613007e+01
      1.74194000e+02 75. 1.91128998e+02 6.77418976e+01 2.08065002e+02
      6.77418976e+01 2.22580994e+02 7.25805969e+01 2.08065002e+02
      7.74194031e+01 1.91128998e+02 7.74194031e+01 5.08064995e+01
      1.88710007e+02 7.74194031e+01 1.86289993e+02 1.04031998e+02
      1.86289993e+02 1.23387001e+02 1.91128998e+02 1.45160995e+02
      1.88710007e+02 1.69354996e+02 1.91128998e+02 1.95968002e+02
      1.95968002e+02 1.69354996e+02 2.22580994e+02 1.42742004e+02
      2.34677002e+02 1.20968002e+02 2.37097000e+02 9.91936035e+01
      2.32257996e+02 75. 2.20160995e+02 6.04838982e+01 1.93548004e+02
      1.04031998e+02 1.98386993e+02 1.23387001e+02 2.00806000e+02
      1.42742004e+02 2.00806000e+02 1.88710007e+02 1.95968002e+02
      1.45160995e+02 2.15322998e+02 1.23387001e+02 2.17742004e+02
      1.01612999e+02 2.12903000e+02</_>
    <_>
      -7.25805998e+00 6.04838982e+01 -1.20967999e+01 9.67742004e+01
      -1.45160999e+01 1.33065002e+02 -1.20967999e+01 1.69354996e+02
      -2.41934991e+00 2.05645004e+02 1.45160999e+01 2.37097000e+02
      4.11290016e+01 2.68548004e+02 75. 2.92742004e+02 1.16128998e+02
      3.02419006e+02 1.59677002e+02 2.95161011e+02 1.98386993e+02
      2.73386993e+02 2.27419006e+02 2.46774002e+02 2.51613007e+02
      2.15322998e+02 2.66128998e+02 1.81451996e+02 2.73386993e+02
      1.45160995e+02 2.73386993e+02 1.08871002e+02 2.73386993e+02 75.
      1.45160999e+01 4.11290016e+01 3.38709984e+01 2.17742004e+01
      6.29031982e+01 1.93547993e+01 9.19355011e+01 2.41935005e+01
      1.18547997e+02 3.87097015e+01 1.57257996e+02 3.87097015e+01
      1.81451996e+02 2.66128998e+01 2.10483994e+02 2.17742004e+01
      2.39516006e+02 2.90323009e+01 2.56451996e+02 5.08064995e+01
      1.35483994e+02 6.77418976e+01 1.33065002e+02 9.19355011e+01
      1.30645004e+02 1.16128998e+02 1.28225998e+02 1.42742004e+02
      9.19355011e+01 1.57257996e+02 1.08871002e+02 1.64516006e+02
      1.25806000e+02 1.69354996e+02 1.45160995e+02 1.66934998e+02
      1.62097000e+02 1.62097000e+02 4.59677010e+01 6.53226013e+01
      6.29031982e+01 6.04838982e+01 7.98386993e+01 6.29031982e+01
      9.67742004e+01 7.01613007e+01 7.74194031e+01 7.01613007e+01
      6.04838982e+01 7.01613007e+01 1.74194000e+02 75. 1.91128998e+02
      6.77418976e+01 2.08065002e+02 6.77418976e+01 225. 75.
      2.08065002e+02 7.74194031e+01 1.91128998e+02 7.74194031e+01
      5.32257996e+01 1.88710007e+02 7.98386993e+01 1.86289993e+02
      1.06452003e+02 1.86289993e+02 1.25806000e+02 1.91128998e+02
      1.47580994e+02 1.88710007e+02 1.71774002e+02 1.91128998e+02
      1.98386993e+02 1.95968002e+02 1.71774002e+02 2.22580994e+02
      1.45160995e+02 2.34677002e+02 1.23387001e+02 2.37097000e+02
      1.01612999e+02 2.32257996e+02 7.74194031e+01 2.20160995e+02
      6.29031982e+01 1.93548004e+02 1.04031998e+02 1.98386993e+02
      1.25806000e+02 2.00806000e+02 1.45160995e+02 2.00806000e+02
      1.88710007e+02 1.95968002e+02 1.45160995e+02 2.15322998e+02
      1.25806000e+02 2.17742004e+02 1.04031998e+02 2.12903000e+02</_>
    <_>
      2.66128998e+01 75. 2.66128998e+01 1.11290001e+02 3.14515991e+01
      1.47580994e+02 3.87097015e+01 1.86289993e+02 5.08064995e+01
      2.20160995e+02 7.25805969e+01 2.54031998e+02 9.67742004e+01
      2.83065002e+02 1.30645004e+02 3.04838989e+02 1.71774002e+02
      3.09677002e+02 2.12903000e+02 300. 2.49194000e+02 2.70967987e+02
      2.75806000e+02 2.39516006e+02 2.97580994e+02 2.05645004e+02
      3.09677002e+02 1.66934998e+02 3.12096985e+02 1.30645004e+02
      3.12096985e+02 9.19355011e+01 3.12096985e+02 5.32257996e+01
      3.38709984e+01 5.56451988e+01 5.08064995e+01 3.62902985e+01
      7.98386993e+01 3.14515991e+01 1.08871002e+02 3.62902985e+01
      1.35483994e+02 4.59677010e+01 1.74194000e+02 4.35484009e+01
      2.00806000e+02 2.90323009e+01 2.29839005e+02 2.41935005e+01
      2.61290009e+02 2.66128998e+01 2.83065002e+02 4.35484009e+01
      1.57257996e+02 7.74194031e+01 1.54839005e+02 1.01612999e+02
      1.54839005e+02 1.28225998e+02 1.54839005e+02 1.52419006e+02
      1.25806000e+02 1.69354996e+02 1.40322998e+02 1.74194000e+02
      1.59677002e+02 1.79031998e+02 1.76613007e+02 1.71774002e+02
      1.93548004e+02 1.66934998e+02 7.01613007e+01 7.98386993e+01
      8.46773987e+01 75. 1.01612999e+02 75. 1.20968002e+02
      8.22581024e+01 1.04031998e+02 8.46773987e+01 8.46773987e+01
      8.46773987e+01 1.95968002e+02 7.98386993e+01 2.10483994e+02
      7.01613007e+01 2.29839005e+02 6.77418976e+01 2.46774002e+02
      7.25805969e+01 2.32257996e+02 7.74194031e+01 2.12903000e+02
      7.98386993e+01 9.43547974e+01 2.03225998e+02 1.20968002e+02
      2.00806000e+02 1.42742004e+02 1.98386993e+02 1.62097000e+02
      2.00806000e+02 1.81451996e+02 1.95968002e+02 2.10483994e+02
      1.95968002e+02 2.37097000e+02 1.95968002e+02 2.12903000e+02
      2.27419006e+02 1.88710007e+02 2.41934998e+02 1.66934998e+02
      2.44354996e+02 1.45160995e+02 2.41934998e+02 1.20968002e+02
      2.32257996e+02 1.04031998e+02 2.08065002e+02 1.42742004e+02
      2.10483994e+02 1.62097000e+02 2.12903000e+02 1.83871002e+02
      2.08065002e+02 2.27419006e+02 1.98386993e+02 1.86289993e+02
      2.20160995e+02 1.64516006e+02 225. 1.45160995e+02 2.22580994e+02</_>
    <_>
      2.61744995e+01 6.04026985e+01 2.81879005e+01 9.26174011e+01
      3.42281990e+01 1.26846001e+02 4.02685013e+01 1.57046997e+02
      5.03356018e+01 1.89261993e+02 6.64430008e+01 2.15436005e+02
      8.65772018e+01 2.35570007e+02 1.14764999e+02 2.53690994e+02
      1.46979996e+02 2.59731995e+02 1.79195007e+02 2.53690994e+02
      2.07382996e+02 2.35570007e+02 2.31544006e+02 2.11408997e+02
      2.51677994e+02 1.83220993e+02 2.61744995e+02 1.53020004e+02
      2.67785004e+02 1.18792000e+02 2.73825989e+02 8.25503006e+01
      2.75838989e+02 4.63087006e+01 3.62416000e+01 3.82550011e+01
      5.23489990e+01 2.61744995e+01 7.44965973e+01 2.41611004e+01
      9.66443024e+01 2.81879005e+01 1.16778999e+02 3.82550011e+01
      1.53020004e+02 3.42281990e+01 1.73154007e+02 2.21476994e+01
      1.97315002e+02 1.61074009e+01 2.21477005e+02 1.81208000e+01
      2.41610992e+02 3.02012997e+01 1.36912994e+02 6.24160995e+01
      1.34899002e+02 8.45637970e+01 1.34899002e+02 1.04697998e+02
      1.34899002e+02 1.24832001e+02 1.10737999e+02 1.38925995e+02
      1.22819000e+02 1.42953003e+02 1.38925995e+02 1.46979996e+02
      1.53020004e+02 1.42953003e+02 1.69128006e+02 1.36912994e+02
      6.44294968e+01 6.44294968e+01 7.85234985e+01 6.04026985e+01
      9.26174011e+01 6.04026985e+01 1.06710999e+02 6.84563980e+01
      9.26174011e+01 7.04698029e+01 7.85234985e+01 7.04698029e+01
      1.73154007e+02 6.64430008e+01 1.87248001e+02 5.83893013e+01
      2.03356003e+02 5.63758011e+01 2.17449997e+02 5.83893013e+01
      2.03356003e+02 6.44294968e+01 1.89261993e+02 6.64430008e+01
      9.86576996e+01 1.77181000e+02 1.14764999e+02 1.69128006e+02
      1.30871994e+02 1.65100998e+02 1.42953003e+02 1.67113998e+02
      1.59059998e+02 1.63087006e+02 1.79195007e+02 1.65100998e+02
      2.01341995e+02 1.73154007e+02 1.81207993e+02 1.97315002e+02
      1.63087006e+02 2.09395996e+02 1.46979996e+02 2.11408997e+02
      1.32886002e+02 2.09395996e+02 1.16778999e+02 2.03356003e+02
      1.06710999e+02 1.79195007e+02 1.30871994e+02 1.75167999e+02
      1.42953003e+02 1.77181000e+02 1.59059998e+02 1.75167999e+02
      1.95302002e+02 1.73154007e+02 1.61074005e+02 1.93289001e+02
      1.44966003e+02 1.95302002e+02 1.32886002e+02 1.93289001e+02</_>
    <_>
      2.61744995e+01 5.43624001e+01 2.81879005e+01 8.85905991e+01
      3.42281990e+01 1.20805000e+02 4.02685013e+01 1.53020004e+02
      5.03356018e+01 1.83220993e+02 6.44294968e+01 2.09395996e+02
      8.25503006e+01 2.31544006e+02 1.08724998e+02 2.49664001e+02
      1.40940002e+02 2.55705002e+02 1.73154007e+02 2.49664001e+02
      2.01341995e+02 2.31544006e+02 2.27516998e+02 2.09395996e+02
      2.49664001e+02 1.81207993e+02 2.59731995e+02 1.51007004e+02
      2.67785004e+02 1.18792000e+02 2.75838989e+02 8.25503006e+01
      2.79865997e+02 4.42952995e+01 3.62416000e+01 4.22818985e+01
      5.23489990e+01 2.61744995e+01 7.65101013e+01 2.41611004e+01
      1.00670998e+02 2.81879005e+01 1.22819000e+02 3.82550011e+01
      1.57046997e+02 3.62416000e+01 1.79195007e+02 2.41611004e+01
      2.03356003e+02 1.81208000e+01 2.29529999e+02 2.21476994e+01
      2.47651001e+02 3.82550011e+01 1.38925995e+02 6.24160995e+01
      1.36912994e+02 8.45637970e+01 1.34899002e+02 1.04697998e+02
      1.32886002e+02 1.26846001e+02 1.08724998e+02 1.36912994e+02
      1.22819000e+02 1.42953003e+02 1.36912994e+02 1.46979996e+02
      1.53020004e+02 1.40940002e+02 1.67113998e+02 1.36912994e+02
      6.44294968e+01 6.24160995e+01 7.85234985e+01 5.83893013e+01
      9.26174011e+01 6.04026985e+01 1.06710999e+02 6.64430008e+01
      9.26174011e+01 6.64430008e+01 7.85234985e+01 6.64430008e+01
      1.77181000e+02 6.64430008e+01 1.91274994e+02 5.83893013e+01
      2.07382996e+02 5.83893013e+01 2.21477005e+02 6.04026985e+01
      2.09395996e+02 6.44294968e+01 1.93289001e+02 6.64430008e+01
      9.06039963e+01 1.71141006e+02 1.08724998e+02 1.65100998e+02
      1.26846001e+02 1.63087006e+02 1.40940002e+02 1.67113998e+02
      1.57046997e+02 1.63087006e+02 1.77181000e+02 1.63087006e+02
      1.99328995e+02 1.69128006e+02 1.79195007e+02 1.95302002e+02
      1.59059998e+02 2.07382996e+02 1.40940002e+02 2.09395996e+02
      1.24832001e+02 2.07382996e+02 1.06710999e+02 1.97315002e+02
      9.86576996e+01 1.73154007e+02 1.24832001e+02 1.73154007e+02
      1.40940002e+02 1.73154007e+02 1.57046997e+02 1.73154007e+02
      1.93289001e+02 1.69128006e+02 1.59059998e+02 1.91274994e+02
      1.40940002e+02 1.93289001e+02 1.26846001e+02 1.91274994e+02</_>
    <_>
      0. 75. -2.41934991e+00 1.11290001e+02 0. 1.47580994e+02
      4.83870983e+00 1.81451996e+02 1.45160999e+01 2.17742004e+02
      3.38709984e+01 2.51613007e+02 5.56451988e+01 2.80644989e+02
      8.95160980e+01 3.02419006e+02 1.28225998e+02 3.09677002e+02
      1.71774002e+02 3.02419006e+02 2.10483994e+02 2.80644989e+02
      2.39516006e+02 2.51613007e+02 2.63709991e+02 2.17742004e+02
      2.75806000e+02 1.83871002e+02 2.83065002e+02 1.47580994e+02
      2.85484009e+02 1.11290001e+02 2.87903015e+02 75. 1.20967999e+01
      5.08064995e+01 3.14515991e+01 3.38709984e+01 5.56451988e+01
      2.90323009e+01 8.46773987e+01 3.38709984e+01 1.08871002e+02
      4.35484009e+01 1.52419006e+02 4.59677010e+01 1.76613007e+02
      3.14515991e+01 2.05645004e+02 2.66128998e+01 2.34677002e+02
      3.14515991e+01 2.56451996e+02 5.08064995e+01 1.28225998e+02
      7.74194031e+01 1.25806000e+02 1.04031998e+02 1.25806000e+02
      1.28225998e+02 1.23387001e+02 1.54839005e+02 9.43547974e+01
      1.71774002e+02 1.08871002e+02 1.76613007e+02 1.25806000e+02
      1.81451996e+02 1.42742004e+02 1.76613007e+02 1.62097000e+02
      1.71774002e+02 4.35484009e+01 7.98386993e+01 6.04838982e+01 75.
      7.74194031e+01 75. 9.43547974e+01 8.46773987e+01 75.
      8.46773987e+01 5.80644989e+01 8.46773987e+01 1.71774002e+02
      8.46773987e+01 1.86289993e+02 75. 2.05645004e+02 75.
      2.22580994e+02 7.98386993e+01 2.05645004e+02 8.46773987e+01
      1.88710007e+02 8.46773987e+01 6.29031982e+01 2.08065002e+02
      8.70968018e+01 2.00806000e+02 1.11290001e+02 1.98386993e+02
      1.28225998e+02 2.03225998e+02 1.47580994e+02 1.95968002e+02
      1.74194000e+02 1.98386993e+02 2.03225998e+02 2.03225998e+02
      1.76613007e+02 2.27419006e+02 1.52419006e+02 2.41934998e+02
      1.30645004e+02 2.44354996e+02 1.11290001e+02 2.41934998e+02
      8.70968018e+01 2.32257996e+02 7.25805969e+01 2.08065002e+02
      1.08871002e+02 2.10483994e+02 1.28225998e+02 2.12903000e+02 150.
      2.10483994e+02 1.93548004e+02 2.05645004e+02 150. 2.20160995e+02
      1.30645004e+02 225. 1.11290001e+02 2.20160995e+02</_>
    <_>
      0. 7.98386993e+01 0. 1.16128998e+02 0. 1.52419006e+02
      4.83870983e+00 1.91128998e+02 1.69354992e+01 225. 3.62902985e+01
      2.58871002e+02 6.29031982e+01 2.87903015e+02 9.43547974e+01
      3.14515991e+02 1.35483994e+02 3.21773987e+02 1.76613007e+02
      3.14515991e+02 2.12903000e+02 2.87903015e+02 2.41934998e+02
      2.58871002e+02 2.66128998e+02 2.27419006e+02 2.78226013e+02
      1.91128998e+02 2.85484009e+02 1.54839005e+02 2.87903015e+02
      1.18547997e+02 2.87903015e+02 8.22581024e+01 1.20967999e+01
      5.80644989e+01 3.38709984e+01 3.87097015e+01 6.29031982e+01
      3.62902985e+01 9.19355011e+01 4.11290016e+01 1.18547997e+02
      5.32257996e+01 1.54839005e+02 5.32257996e+01 1.81451996e+02
      4.11290016e+01 2.10483994e+02 3.62902985e+01 2.41934998e+02
      3.87097015e+01 2.61290009e+02 5.80644989e+01 1.35483994e+02
      8.46773987e+01 1.35483994e+02 1.08871002e+02 1.33065002e+02
      1.35483994e+02 1.30645004e+02 1.62097000e+02 9.91936035e+01
      1.76613007e+02 1.13709999e+02 1.81451996e+02 1.33065002e+02
      1.88710007e+02 150. 1.83871002e+02 1.66934998e+02 1.79031998e+02
      4.59677010e+01 8.46773987e+01 6.29031982e+01 7.98386993e+01
      7.98386993e+01 7.98386993e+01 9.91936035e+01 8.95160980e+01
      7.98386993e+01 8.95160980e+01 6.29031982e+01 8.95160980e+01
      1.76613007e+02 8.95160980e+01 1.93548004e+02 8.22581024e+01
      2.10483994e+02 8.22581024e+01 2.29839005e+02 8.46773987e+01
      2.12903000e+02 9.19355011e+01 1.95968002e+02 9.19355011e+01
      6.77418976e+01 2.12903000e+02 9.43547974e+01 2.08065002e+02
      1.16128998e+02 2.05645004e+02 1.35483994e+02 2.10483994e+02
      1.54839005e+02 2.05645004e+02 1.79031998e+02 2.08065002e+02
      2.05645004e+02 2.15322998e+02 1.81451996e+02 2.44354996e+02
      1.57257996e+02 2.56451996e+02 1.35483994e+02 2.58871002e+02
      1.13709999e+02 2.54031998e+02 9.19355011e+01 2.41934998e+02
      7.98386993e+01 2.17742004e+02 1.16128998e+02 2.20160995e+02
      1.35483994e+02 2.22580994e+02 1.54839005e+02 2.20160995e+02
      1.95968002e+02 2.15322998e+02 1.54839005e+02 2.32257996e+02
      1.35483994e+02 2.34677002e+02 1.16128998e+02 2.32257996e+02</_>
    <_>
      46. 106. 46. 136. 50. 168. 56. 200. 70. 228. 88. 254. 108. 276.
      132. 296. 162. 300. 194. 290. 226. 268. 250. 244. 270. 214. 282.
      182. 288. 152. 290. 118. 288. 82. 48. 86. 60. 72. 80. 70. 100. 72.
      122. 78. 156. 76. 180. 66. 204. 60. 230. 62. 248. 76. 140. 108.
      140. 128. 140. 148. 138. 170. 118. 184. 130. 188. 144. 192. 160.
      186. 174. 182. 76. 110. 88. 104. 102. 104. 116. 110. 102. 112. 88.
      114. 178. 106. 190. 98. 206. 98. 222. 100. 208. 106. 192. 108.
      102. 212. 118. 208. 136. 206. 150. 210. 164. 206. 188. 206. 212.
      206. 192. 234. 170. 246. 154. 248. 138. 246. 120. 236. 110. 214.
      136. 216. 150. 218. 166. 216. 204. 208. 168. 228. 152. 230. 138.
      228.</_>
    <_>
      1.93547993e+01 8.46773987e+01 2.17742004e+01 1.20968002e+02
      2.66128998e+01 1.59677002e+02 3.38709984e+01 1.98386993e+02
      4.83871002e+01 2.32257996e+02 7.01613007e+01 2.63709991e+02
      9.43547974e+01 2.92742004e+02 1.25806000e+02 3.14515991e+02
      1.64516006e+02 3.21773987e+02 2.03225998e+02 3.12096985e+02
      2.39516006e+02 2.83065002e+02 2.66128998e+02 2.51613007e+02
      2.87903015e+02 2.17742004e+02 3.02419006e+02 1.81451996e+02
      3.07257996e+02 1.42742004e+02 3.09677002e+02 1.04031998e+02
      3.09677002e+02 6.53226013e+01 2.66128998e+01 6.53226013e+01
      4.59677010e+01 4.35484009e+01 7.25805969e+01 3.87097015e+01
      1.01612999e+02 4.35484009e+01 1.30645004e+02 5.32257996e+01
      1.69354996e+02 5.08064995e+01 1.95968002e+02 3.62902985e+01
      2.27419006e+02 3.14515991e+01 2.56451996e+02 3.38709984e+01
      2.78226013e+02 5.32257996e+01 1.52419006e+02 8.46773987e+01
      1.52419006e+02 1.11290001e+02 150. 1.35483994e+02 150.
      1.62097000e+02 1.20968002e+02 1.76613007e+02 1.35483994e+02
      1.81451996e+02 1.54839005e+02 1.86289993e+02 1.71774002e+02
      1.81451996e+02 1.88710007e+02 1.76613007e+02 6.29031982e+01
      8.70968018e+01 7.98386993e+01 8.22581024e+01 9.67742004e+01
      8.22581024e+01 1.13709999e+02 8.95160980e+01 9.67742004e+01
      9.19355011e+01 7.98386993e+01 9.19355011e+01 1.93548004e+02
      8.70968018e+01 2.10483994e+02 7.74194031e+01 2.27419006e+02
      7.74194031e+01 2.44354996e+02 7.98386993e+01 2.29839005e+02
      8.70968018e+01 2.12903000e+02 8.95160980e+01 9.19355011e+01
      2.12903000e+02 1.16128998e+02 2.08065002e+02 1.37903000e+02
      2.05645004e+02 1.57257996e+02 2.10483994e+02 1.76613007e+02
      2.05645004e+02 2.03225998e+02 2.05645004e+02 2.29839005e+02
      2.08065002e+02 2.05645004e+02 2.41934998e+02 1.81451996e+02
      2.58871002e+02 1.59677002e+02 2.61290009e+02 1.37903000e+02
      2.58871002e+02 1.16128998e+02 2.44354996e+02 1.01612999e+02
      2.17742004e+02 1.37903000e+02 2.20160995e+02 1.57257996e+02
      2.22580994e+02 1.79031998e+02 2.20160995e+02 2.20160995e+02
      2.12903000e+02 1.79031998e+02 2.37097000e+02 1.57257996e+02
      2.39516006e+02 1.40322998e+02 2.37097000e+02</_>
    <_>
      50. 102. 50. 134. 52. 166. 60. 196. 72. 226. 90. 252. 110. 274.
      136. 292. 164. 296. 196. 288. 228. 266. 252. 242. 274. 212. 286.
      180. 292. 148. 294. 112. 292. 76. 50. 88. 64. 72. 84. 68. 106. 72.
      128. 78. 160. 74. 182. 62. 208. 58. 236. 60. 256. 76. 146. 104.
      146. 126. 146. 146. 144. 166. 122. 182. 136. 186. 150. 190. 166.
      184. 182. 180. 80. 108. 92. 102. 106. 102. 122. 108. 106. 112. 92.
      112. 182. 104. 194. 96. 210. 94. 226. 96. 212. 102. 196. 104. 104.
      212. 122. 208. 140. 204. 154. 208. 170. 202. 194. 204. 216. 204.
      198. 230. 176. 244. 158. 246. 142. 246. 124. 236. 112. 214. 140.
      214. 154. 216. 172. 214. 210. 206. 174. 226. 156. 228. 142. 226.</_>
    <_>
      42. 102. 44. 132. 48. 166. 54. 196. 66. 224. 86. 250. 106. 272.
      132. 292. 162. 296. 196. 288. 224. 266. 248. 240. 268. 210. 278.
      178. 284. 146. 286. 112. 286. 76. 44. 90. 54. 72. 76. 68. 100. 72.
      122. 78. 156. 76. 178. 62. 204. 56. 230. 58. 248. 74. 140. 106.
      140. 128. 140. 146. 140. 168. 118. 182. 132. 186. 146. 190. 160.
      184. 176. 180. 74. 108. 86. 104. 100. 104. 116. 108. 102. 110. 88.
      112. 176. 104. 190. 96. 204. 94. 220. 96. 206. 102. 192. 104. 100.
      210. 118. 208. 136. 204. 150. 208. 166. 202. 188. 204. 212. 202.
      192. 230. 172. 242. 154. 246. 138. 244. 120. 234. 110. 214. 136.
      214. 150. 216. 166. 212. 204. 206. 168. 224. 152. 228. 138. 226.</_>
    <_>
      54. 92. 56. 124. 58. 156. 64. 186. 74. 218. 92. 246. 112. 270.
      140. 292. 172. 298. 204. 290. 234. 268. 258. 242. 278. 214. 290.
      184. 296. 152. 298. 120. 298. 84. 60. 88. 74. 68. 96. 64. 122. 68.
      146. 76. 178. 76. 202. 64. 228. 60. 254. 64. 272. 80. 164. 104.
      162. 126. 162. 148. 160. 170. 134. 180. 148. 184. 164. 188. 180.
      184. 194. 180. 90. 104. 104. 98. 118. 100. 134. 106. 118. 108.
      104. 108. 198. 104. 212. 98. 226. 98. 242. 100. 228. 106. 214.
      106. 108. 204. 132. 202. 150. 202. 166. 204. 184. 202. 206. 202.
      228. 206. 208. 234. 186. 246. 166. 248. 150. 246. 132. 234. 118.
      208. 150. 210. 166. 212. 184. 210. 220. 208. 186. 230. 166. 232.
      150. 228.</_>
    <_>
      2.81879005e+01 5.83893013e+01 2.81879005e+01 9.06039963e+01
      3.22148018e+01 1.22819000e+02 3.62416000e+01 1.55033997e+02
      4.63087006e+01 1.85235001e+02 6.24160995e+01 2.11408997e+02
      8.25503006e+01 2.35570007e+02 1.10737999e+02 2.53690994e+02
      1.42953003e+02 2.57717987e+02 1.75167999e+02 2.51677994e+02
      2.05369003e+02 2.33557007e+02 2.29529999e+02 2.09395996e+02
      2.49664001e+02 1.79195007e+02 2.61744995e+02 1.48992996e+02
      2.65772003e+02 1.16778999e+02 2.69799011e+02 8.45637970e+01
      2.71812012e+02 4.83221016e+01 3.62416000e+01 4.63087006e+01
      5.03356018e+01 2.81879005e+01 7.44965973e+01 2.41611004e+01
      9.86576996e+01 2.81879005e+01 1.22819000e+02 3.62416000e+01
      1.55033997e+02 3.62416000e+01 1.77181000e+02 2.61744995e+01
      2.03356003e+02 2.41611004e+01 2.29529999e+02 2.81879005e+01
      2.47651001e+02 4.63087006e+01 1.38925995e+02 6.44294968e+01
      1.36912994e+02 8.65772018e+01 1.34899002e+02 1.06710999e+02
      1.32886002e+02 1.28858994e+02 1.08724998e+02 1.42953003e+02
      1.22819000e+02 1.46979996e+02 1.36912994e+02 1.48992996e+02
      1.51007004e+02 1.44966003e+02 1.65100998e+02 1.40940002e+02
      6.44294968e+01 6.44294968e+01 7.65101013e+01 6.04026985e+01
      9.06039963e+01 6.24160995e+01 1.06710999e+02 6.84563980e+01
      9.06039963e+01 6.84563980e+01 7.65101013e+01 6.84563980e+01
      1.75167999e+02 6.84563980e+01 1.89261993e+02 6.24160995e+01
      2.03356003e+02 6.24160995e+01 2.19462997e+02 6.44294968e+01
      2.03356003e+02 6.84563980e+01 1.89261993e+02 6.84563980e+01
      8.65772018e+01 1.73154007e+02 1.06710999e+02 1.69128006e+02
      1.24832001e+02 1.67113998e+02 1.40940002e+02 1.71141006e+02
      1.57046997e+02 1.65100998e+02 1.77181000e+02 1.67113998e+02
      1.97315002e+02 1.71141006e+02 1.81207993e+02 1.91274994e+02
      1.61074005e+02 2.03356003e+02 1.42953003e+02 2.05369003e+02
      1.24832001e+02 2.03356003e+02 1.08724998e+02 1.93289001e+02
      9.46308975e+01 1.75167999e+02 1.24832001e+02 1.75167999e+02
      1.40940002e+02 1.77181000e+02 1.57046997e+02 1.75167999e+02
      1.91274994e+02 1.71141006e+02 1.59059998e+02 1.87248001e+02
      1.42953003e+02 1.91274994e+02 1.26846001e+02 1.87248001e+02</_>
    <_>
      2.41934991e+00 7.74194031e+01 0. 1.16128998e+02 2.41934991e+00
      1.52419006e+02 4.83870983e+00 1.88710007e+02 1.69354992e+01 225.
      3.62902985e+01 2.58871002e+02 6.04838982e+01 2.87903015e+02
      9.19355011e+01 3.12096985e+02 1.33065002e+02 3.21773987e+02
      1.74194000e+02 3.14515991e+02 2.12903000e+02 2.90322998e+02
      2.41934998e+02 2.63709991e+02 2.66128998e+02 2.29839005e+02
      2.80644989e+02 1.93548004e+02 2.87903015e+02 1.57257996e+02
      2.90322998e+02 1.18547997e+02 2.92742004e+02 8.22581024e+01
      1.45160999e+01 5.32257996e+01 3.38709984e+01 3.38709984e+01
      6.29031982e+01 3.14515991e+01 9.19355011e+01 3.87097015e+01
      1.18547997e+02 5.08064995e+01 1.57257996e+02 5.08064995e+01
      1.83871002e+02 3.62902985e+01 2.15322998e+02 3.38709984e+01
      2.44354996e+02 3.87097015e+01 2.66128998e+02 6.04838982e+01
      1.37903000e+02 8.22581024e+01 1.35483994e+02 1.06452003e+02
      1.33065002e+02 1.30645004e+02 1.28225998e+02 1.57257996e+02
      9.67742004e+01 1.74194000e+02 1.13709999e+02 1.79031998e+02
      1.30645004e+02 1.86289993e+02 150. 1.81451996e+02 1.66934998e+02
      1.76613007e+02 4.83871002e+01 8.22581024e+01 6.53226013e+01
      7.74194031e+01 8.22581024e+01 7.98386993e+01 9.91936035e+01
      8.70968018e+01 7.98386993e+01 8.70968018e+01 6.29031982e+01
      8.70968018e+01 1.79031998e+02 8.95160980e+01 1.95968002e+02
      8.22581024e+01 2.12903000e+02 8.22581024e+01 2.32257996e+02
      8.46773987e+01 2.15322998e+02 9.19355011e+01 1.95968002e+02
      9.19355011e+01 6.53226013e+01 2.10483994e+02 8.95160980e+01
      2.05645004e+02 1.13709999e+02 2.03225998e+02 1.33065002e+02
      2.08065002e+02 1.52419006e+02 2.05645004e+02 1.79031998e+02
      2.08065002e+02 2.05645004e+02 2.12903000e+02 1.81451996e+02
      2.41934998e+02 1.54839005e+02 2.54031998e+02 1.33065002e+02
      2.56451996e+02 1.11290001e+02 2.51613007e+02 8.95160980e+01
      2.39516006e+02 75. 2.12903000e+02 1.13709999e+02 2.17742004e+02
      1.33065002e+02 2.20160995e+02 1.52419006e+02 2.20160995e+02
      1.95968002e+02 2.15322998e+02 1.54839005e+02 2.32257996e+02
      1.33065002e+02 2.34677002e+02 1.13709999e+02 2.29839005e+02</_>
    <_>
      2.41935005e+01 75. 2.41935005e+01 1.06452003e+02 2.90323009e+01
      1.42742004e+02 3.14515991e+01 1.76613007e+02 4.11290016e+01
      2.12903000e+02 6.04838982e+01 2.44354996e+02 8.46773987e+01
      2.68548004e+02 1.16128998e+02 2.90322998e+02 1.57257996e+02
      2.95161011e+02 1.98386993e+02 2.87903015e+02 2.32257996e+02
      2.66128998e+02 2.56451996e+02 2.39516006e+02 2.78226013e+02
      2.08065002e+02 2.90322998e+02 1.74194000e+02 2.92742004e+02
      1.40322998e+02 2.95161011e+02 1.06452003e+02 2.95161011e+02
      7.74194031e+01 4.11290016e+01 5.56451988e+01 5.80644989e+01
      3.38709984e+01 8.46773987e+01 2.90323009e+01 1.11290001e+02
      3.14515991e+01 1.37903000e+02 4.11290016e+01 1.79031998e+02
      4.11290016e+01 2.03225998e+02 2.90323009e+01 2.29839005e+02
      2.66128998e+01 2.56451996e+02 3.14515991e+01 2.73386993e+02
      5.08064995e+01 1.57257996e+02 7.01613007e+01 1.54839005e+02
      9.43547974e+01 1.54839005e+02 1.16128998e+02 1.52419006e+02
      1.37903000e+02 1.23387001e+02 1.57257996e+02 1.40322998e+02
      1.62097000e+02 1.54839005e+02 1.66934998e+02 1.71774002e+02
      1.62097000e+02 1.86289993e+02 1.57257996e+02 7.25805969e+01
      7.74194031e+01 8.70968018e+01 7.25805969e+01 1.04031998e+02
      7.25805969e+01 1.18547997e+02 7.74194031e+01 1.04031998e+02
      8.22581024e+01 8.70968018e+01 8.22581024e+01 1.95968002e+02
      7.74194031e+01 2.12903000e+02 7.01613007e+01 2.29839005e+02
      7.01613007e+01 2.44354996e+02 7.74194031e+01 2.29839005e+02
      7.98386993e+01 2.12903000e+02 7.98386993e+01 9.43547974e+01
      2.03225998e+02 1.16128998e+02 1.91128998e+02 1.37903000e+02
      1.83871002e+02 1.54839005e+02 1.88710007e+02 1.71774002e+02
      1.83871002e+02 1.93548004e+02 1.91128998e+02 2.17742004e+02
      2.00806000e+02 1.95968002e+02 2.17742004e+02 1.74194000e+02 225.
      1.54839005e+02 225. 1.35483994e+02 225. 1.16128998e+02
      2.17742004e+02 1.01612999e+02 2.03225998e+02 1.37903000e+02
      2.00806000e+02 1.54839005e+02 2.00806000e+02 1.74194000e+02
      1.98386993e+02 2.08065002e+02 2.00806000e+02 1.74194000e+02
      2.00806000e+02 1.54839005e+02 2.03225998e+02 1.37903000e+02
      2.00806000e+02</_>
    <_>
      -7.25805998e+00 75. -7.25805998e+00 1.08871002e+02 -4.83870983e+00
      1.45160995e+02 0. 1.76613007e+02 1.20967999e+01 2.10483994e+02
      3.14515991e+01 2.41934998e+02 5.80644989e+01 2.66128998e+02
      8.95160980e+01 2.85484009e+02 1.30645004e+02 2.92742004e+02
      1.69354996e+02 2.85484009e+02 2.03225998e+02 2.63709991e+02
      2.29839005e+02 2.39516006e+02 2.51613007e+02 2.08065002e+02
      2.63709991e+02 1.76613007e+02 2.68548004e+02 1.42742004e+02
      2.70967987e+02 1.11290001e+02 2.70967987e+02 7.98386993e+01
      1.20967999e+01 5.32257996e+01 2.90323009e+01 3.14515991e+01
      5.80644989e+01 2.41935005e+01 8.46773987e+01 2.90323009e+01
      1.11290001e+02 3.87097015e+01 150. 3.87097015e+01 1.74194000e+02
      2.66128998e+01 2.03225998e+02 2.41935005e+01 2.29839005e+02
      3.14515991e+01 2.49194000e+02 5.32257996e+01 1.28225998e+02
      6.77418976e+01 1.28225998e+02 8.95160980e+01 1.25806000e+02
      1.11290001e+02 1.25806000e+02 1.33065002e+02 9.67742004e+01
      1.54839005e+02 1.11290001e+02 1.57257996e+02 1.28225998e+02
      1.62097000e+02 1.42742004e+02 1.59677002e+02 1.59677002e+02
      1.54839005e+02 4.35484009e+01 75. 5.80644989e+01 7.01613007e+01
      75. 7.01613007e+01 9.19355011e+01 75. 75. 7.98386993e+01
      5.80644989e+01 7.98386993e+01 1.71774002e+02 75. 1.86289993e+02
      7.01613007e+01 2.03225998e+02 7.01613007e+01 2.17742004e+02 75.
      2.03225998e+02 7.98386993e+01 1.86289993e+02 7.98386993e+01
      6.53226013e+01 2.00806000e+02 8.95160980e+01 1.88710007e+02
      1.08871002e+02 1.81451996e+02 1.28225998e+02 1.86289993e+02
      1.42742004e+02 1.81451996e+02 1.64516006e+02 1.86289993e+02
      1.91128998e+02 1.98386993e+02 1.69354996e+02 2.15322998e+02
      1.45160995e+02 2.22580994e+02 1.28225998e+02 2.22580994e+02
      1.08871002e+02 2.22580994e+02 8.70968018e+01 2.15322998e+02 75.
      2.00806000e+02 1.08871002e+02 1.95968002e+02 1.28225998e+02
      1.98386993e+02 1.45160995e+02 1.95968002e+02 1.81451996e+02
      1.98386993e+02 1.45160995e+02 1.98386993e+02 1.28225998e+02
      2.00806000e+02 1.08871002e+02 1.98386993e+02</_>
    <_>
      -7.25805998e+00 7.25805969e+01 -9.67741966e+00 1.06452003e+02
      -4.83870983e+00 1.40322998e+02 0. 1.74194000e+02 1.20967999e+01
      2.08065002e+02 3.14515991e+01 2.37097000e+02 5.80644989e+01
      2.63709991e+02 8.70968018e+01 2.83065002e+02 1.28225998e+02
      2.90322998e+02 1.69354996e+02 2.85484009e+02 2.00806000e+02
      2.63709991e+02 2.27419006e+02 2.37097000e+02 2.49194000e+02
      2.05645004e+02 2.61290009e+02 1.74194000e+02 2.66128998e+02
      1.42742004e+02 2.68548004e+02 1.08871002e+02 2.66128998e+02
      7.74194031e+01 1.45160999e+01 4.83871002e+01 3.14515991e+01
      2.90323009e+01 5.80644989e+01 2.41935005e+01 8.46773987e+01
      2.90323009e+01 1.11290001e+02 3.87097015e+01 150. 3.87097015e+01
      1.76613007e+02 2.66128998e+01 2.03225998e+02 2.41935005e+01
      2.29839005e+02 2.90323009e+01 2.46774002e+02 5.08064995e+01
      1.30645004e+02 6.77418976e+01 1.28225998e+02 8.95160980e+01
      1.28225998e+02 1.11290001e+02 1.25806000e+02 1.33065002e+02
      9.67742004e+01 1.54839005e+02 1.11290001e+02 1.57257996e+02
      1.28225998e+02 1.62097000e+02 1.42742004e+02 1.59677002e+02
      1.59677002e+02 1.54839005e+02 4.59677010e+01 7.25805969e+01
      5.80644989e+01 6.77418976e+01 75. 6.77418976e+01 8.95160980e+01
      7.25805969e+01 75. 7.74194031e+01 5.80644989e+01 7.74194031e+01
      1.71774002e+02 75. 1.86289993e+02 7.01613007e+01 2.00806000e+02
      7.01613007e+01 2.17742004e+02 75. 2.00806000e+02 7.98386993e+01
      1.86289993e+02 7.74194031e+01 6.53226013e+01 1.98386993e+02
      8.70968018e+01 1.88710007e+02 1.08871002e+02 1.81451996e+02
      1.28225998e+02 1.86289993e+02 1.45160995e+02 1.81451996e+02
      1.64516006e+02 1.86289993e+02 1.88710007e+02 1.98386993e+02
      1.66934998e+02 2.12903000e+02 1.45160995e+02 2.20160995e+02
      1.25806000e+02 2.22580994e+02 1.06452003e+02 2.20160995e+02
      8.46773987e+01 2.15322998e+02 7.25805969e+01 1.98386993e+02
      1.08871002e+02 1.95968002e+02 1.28225998e+02 1.98386993e+02
      1.45160995e+02 1.95968002e+02 1.79031998e+02 1.95968002e+02
      1.45160995e+02 1.98386993e+02 1.25806000e+02 2.00806000e+02
      1.08871002e+02 1.98386993e+02</_>
    <_>
      2.41935005e+01 7.25805969e+01 2.41935005e+01 1.04031998e+02
      2.90323009e+01 1.40322998e+02 3.38709984e+01 1.76613007e+02
      4.59677010e+01 2.10483994e+02 6.77418976e+01 2.41934998e+02
      9.19355011e+01 2.66128998e+02 1.25806000e+02 2.85484009e+02
      1.64516006e+02 2.90322998e+02 2.05645004e+02 2.83065002e+02
      2.37097000e+02 2.61290009e+02 2.63709991e+02 2.34677002e+02
      2.85484009e+02 2.05645004e+02 2.97580994e+02 1.71774002e+02 300.
      1.37903000e+02 3.02419006e+02 1.06452003e+02 3.02419006e+02
      7.25805969e+01 4.35484009e+01 5.32257996e+01 6.29031982e+01
      3.14515991e+01 9.19355011e+01 2.66128998e+01 1.18547997e+02
      2.90323009e+01 1.45160995e+02 4.11290016e+01 1.86289993e+02
      3.87097015e+01 2.10483994e+02 2.90323009e+01 2.37097000e+02
      2.66128998e+01 2.63709991e+02 3.14515991e+01 2.80644989e+02
      5.08064995e+01 1.62097000e+02 6.77418976e+01 1.62097000e+02
      9.19355011e+01 1.62097000e+02 1.13709999e+02 1.59677002e+02
      1.35483994e+02 1.30645004e+02 1.54839005e+02 1.47580994e+02
      1.57257996e+02 1.62097000e+02 1.62097000e+02 1.76613007e+02
      1.57257996e+02 1.91128998e+02 1.54839005e+02 7.74194031e+01 75.
      9.19355011e+01 7.01613007e+01 1.06452003e+02 7.01613007e+01
      1.23387001e+02 75. 1.08871002e+02 7.74194031e+01 9.19355011e+01
      7.74194031e+01 2.05645004e+02 75. 2.20160995e+02 7.01613007e+01
      2.37097000e+02 7.25805969e+01 2.51613007e+02 75. 2.37097000e+02
      7.98386993e+01 2.20160995e+02 7.98386993e+01 9.91936035e+01
      2.00806000e+02 1.23387001e+02 1.88710007e+02 1.45160995e+02
      1.83871002e+02 1.62097000e+02 1.86289993e+02 1.79031998e+02
      1.83871002e+02 2.00806000e+02 1.88710007e+02 225. 1.98386993e+02
      2.00806000e+02 2.15322998e+02 1.81451996e+02 2.22580994e+02
      1.59677002e+02 2.22580994e+02 1.42742004e+02 2.22580994e+02
      1.20968002e+02 2.17742004e+02 1.06452003e+02 2.00806000e+02
      1.45160995e+02 1.95968002e+02 1.62097000e+02 1.98386993e+02
      1.79031998e+02 1.98386993e+02 2.15322998e+02 1.98386993e+02
      1.79031998e+02 2.00806000e+02 1.59677002e+02 2.03225998e+02
      1.42742004e+02 2.00806000e+02</_>
    <_>
      -9.67741966e+00 75. -9.67741966e+00 1.08871002e+02 -4.83870983e+00
      1.45160995e+02 -2.41934991e+00 1.79031998e+02 9.67741966e+00
      2.15322998e+02 2.90323009e+01 2.46774002e+02 5.56451988e+01
      2.70967987e+02 8.70968018e+01 2.90322998e+02 1.28225998e+02
      2.97580994e+02 1.69354996e+02 2.92742004e+02 2.00806000e+02
      2.70967987e+02 2.27419006e+02 2.41934998e+02 2.49194000e+02
      2.10483994e+02 2.61290009e+02 1.79031998e+02 2.66128998e+02
      1.47580994e+02 2.70967987e+02 1.13709999e+02 2.70967987e+02
      7.98386993e+01 1.20967999e+01 5.08064995e+01 3.14515991e+01
      3.14515991e+01 6.04838982e+01 2.66128998e+01 8.95160980e+01
      3.14515991e+01 1.16128998e+02 4.11290016e+01 150. 4.11290016e+01
      1.76613007e+02 3.14515991e+01 2.05645004e+02 2.66128998e+01
      2.34677002e+02 3.38709984e+01 2.51613007e+02 5.56451988e+01
      1.30645004e+02 7.01613007e+01 1.30645004e+02 9.19355011e+01
      1.28225998e+02 1.13709999e+02 1.28225998e+02 1.37903000e+02
      9.91936035e+01 1.57257996e+02 1.13709999e+02 1.62097000e+02
      1.28225998e+02 1.64516006e+02 1.45160995e+02 1.62097000e+02
      1.59677002e+02 1.59677002e+02 4.59677010e+01 75. 6.04838982e+01
      7.25805969e+01 75. 7.25805969e+01 9.19355011e+01 7.74194031e+01
      75. 7.98386993e+01 6.04838982e+01 7.98386993e+01 1.74194000e+02
      7.74194031e+01 1.88710007e+02 7.25805969e+01 2.03225998e+02
      7.25805969e+01 2.20160995e+02 7.74194031e+01 2.03225998e+02
      8.22581024e+01 1.88710007e+02 7.98386993e+01 6.77418976e+01
      2.03225998e+02 8.95160980e+01 1.91128998e+02 1.11290001e+02
      1.83871002e+02 1.28225998e+02 1.88710007e+02 1.45160995e+02
      1.83871002e+02 1.66934998e+02 1.91128998e+02 1.88710007e+02
      2.03225998e+02 1.69354996e+02 2.17742004e+02 1.47580994e+02 225.
      1.28225998e+02 2.27419006e+02 1.08871002e+02 225. 8.70968018e+01
      2.20160995e+02 75. 2.03225998e+02 1.08871002e+02 1.98386993e+02
      1.28225998e+02 2.00806000e+02 1.45160995e+02 1.98386993e+02
      1.79031998e+02 2.00806000e+02 1.47580994e+02 2.03225998e+02
      1.28225998e+02 2.05645004e+02 1.08871002e+02 2.03225998e+02</_>
    <_>
      2.41935005e+01 75. 2.41935005e+01 1.06452003e+02 2.66128998e+01
      1.42742004e+02 3.14515991e+01 1.76613007e+02 4.35484009e+01
      2.12903000e+02 6.04838982e+01 2.44354996e+02 8.70968018e+01
      2.68548004e+02 1.18547997e+02 2.90322998e+02 1.59677002e+02
      2.95161011e+02 2.00806000e+02 2.90322998e+02 2.32257996e+02
      2.68548004e+02 2.58871002e+02 2.41934998e+02 2.80644989e+02
      2.12903000e+02 2.92742004e+02 1.81451996e+02 300. 1.45160995e+02
      3.02419006e+02 1.11290001e+02 3.04838989e+02 7.74194031e+01
      4.35484009e+01 5.56451988e+01 6.29031982e+01 3.62902985e+01
      8.95160980e+01 2.90323009e+01 1.18547997e+02 3.38709984e+01
      1.45160995e+02 4.35484009e+01 1.83871002e+02 4.11290016e+01
      2.10483994e+02 3.14515991e+01 2.37097000e+02 2.90323009e+01
      2.63709991e+02 3.62902985e+01 2.80644989e+02 5.32257996e+01
      1.62097000e+02 7.25805969e+01 1.62097000e+02 9.43547974e+01
      1.59677002e+02 1.16128998e+02 1.59677002e+02 1.40322998e+02
      1.28225998e+02 1.59677002e+02 1.42742004e+02 1.62097000e+02
      1.59677002e+02 1.66934998e+02 1.76613007e+02 1.64516006e+02
      1.91128998e+02 1.59677002e+02 75. 7.74194031e+01 9.19355011e+01
      75. 1.06452003e+02 75. 1.23387001e+02 7.98386993e+01
      1.06452003e+02 8.22581024e+01 9.19355011e+01 8.22581024e+01
      2.03225998e+02 7.98386993e+01 2.20160995e+02 75. 2.37097000e+02
      75. 2.51613007e+02 7.98386993e+01 2.37097000e+02 8.46773987e+01
      2.20160995e+02 8.46773987e+01 9.67742004e+01 2.03225998e+02
      1.20968002e+02 1.91128998e+02 1.42742004e+02 1.86289993e+02
      1.59677002e+02 1.91128998e+02 1.76613007e+02 1.86289993e+02
      1.98386993e+02 1.91128998e+02 2.22580994e+02 2.03225998e+02
      1.98386993e+02 2.20160995e+02 1.76613007e+02 2.27419006e+02
      1.57257996e+02 2.27419006e+02 1.40322998e+02 2.27419006e+02
      1.18547997e+02 2.20160995e+02 1.06452003e+02 2.03225998e+02
      1.42742004e+02 2.00806000e+02 1.59677002e+02 2.03225998e+02
      1.76613007e+02 2.00806000e+02 2.12903000e+02 2.03225998e+02
      1.76613007e+02 2.03225998e+02 1.59677002e+02 2.05645004e+02
      1.42742004e+02 2.03225998e+02</_>
    <_>
      2.41935005e+01 75. 2.41935005e+01 1.08871002e+02 2.90323009e+01
      1.45160995e+02 3.38709984e+01 1.79031998e+02 4.35484009e+01
      2.12903000e+02 6.29031982e+01 2.44354996e+02 8.95160980e+01
      2.70967987e+02 1.20968002e+02 2.90322998e+02 1.62097000e+02
      2.97580994e+02 2.00806000e+02 2.90322998e+02 2.34677002e+02
      2.68548004e+02 2.61290009e+02 2.41934998e+02 2.83065002e+02
      2.12903000e+02 2.95161011e+02 1.79031998e+02 300. 1.45160995e+02
      3.02419006e+02 1.11290001e+02 3.02419006e+02 7.98386993e+01
      4.35484009e+01 5.56451988e+01 6.04838982e+01 3.38709984e+01
      8.95160980e+01 2.90323009e+01 1.18547997e+02 3.38709984e+01
      1.45160995e+02 4.35484009e+01 1.81451996e+02 4.35484009e+01
      2.08065002e+02 3.38709984e+01 2.34677002e+02 2.90323009e+01
      2.61290009e+02 3.62902985e+01 2.80644989e+02 5.56451988e+01
      1.62097000e+02 7.25805969e+01 1.59677002e+02 9.43547974e+01
      1.59677002e+02 1.16128998e+02 1.59677002e+02 1.40322998e+02
      1.28225998e+02 1.59677002e+02 1.42742004e+02 1.62097000e+02
      1.59677002e+02 1.66934998e+02 1.74194000e+02 1.62097000e+02
      1.91128998e+02 1.59677002e+02 75. 7.74194031e+01 8.95160980e+01
      7.25805969e+01 1.06452003e+02 7.25805969e+01 1.20968002e+02
      7.98386993e+01 1.06452003e+02 8.22581024e+01 8.95160980e+01
      7.98386993e+01 2.03225998e+02 7.98386993e+01 2.17742004e+02 75.
      2.34677002e+02 75. 2.49194000e+02 7.98386993e+01 2.34677002e+02
      8.46773987e+01 2.17742004e+02 8.22581024e+01 9.67742004e+01
      2.05645004e+02 1.20968002e+02 1.91128998e+02 1.42742004e+02
      1.86289993e+02 1.59677002e+02 1.91128998e+02 1.76613007e+02
      1.86289993e+02 1.98386993e+02 1.93548004e+02 2.22580994e+02
      2.03225998e+02 1.98386993e+02 2.20160995e+02 1.79031998e+02
      2.27419006e+02 1.59677002e+02 2.27419006e+02 1.40322998e+02
      2.27419006e+02 1.18547997e+02 2.20160995e+02 1.06452003e+02
      2.05645004e+02 1.40322998e+02 2.00806000e+02 1.59677002e+02
      2.03225998e+02 1.76613007e+02 2.03225998e+02 2.12903000e+02
      2.03225998e+02 1.76613007e+02 2.03225998e+02 1.59677002e+02
      2.05645004e+02 1.40322998e+02 2.03225998e+02</_>
    <_>
      -4.83870983e+00 7.74194031e+01 -7.25805998e+00 1.08871002e+02
      -4.83870983e+00 1.45160995e+02 0. 1.81451996e+02 9.67741966e+00
      2.15322998e+02 2.90323009e+01 2.46774002e+02 5.32257996e+01
      2.73386993e+02 8.46773987e+01 2.92742004e+02 1.23387001e+02 300.
      1.64516006e+02 2.95161011e+02 1.98386993e+02 2.73386993e+02
      2.27419006e+02 2.46774002e+02 2.49194000e+02 2.15322998e+02
      2.61290009e+02 1.83871002e+02 2.66128998e+02 150. 2.70967987e+02
      1.16128998e+02 2.70967987e+02 8.22581024e+01 1.45160999e+01
      5.56451988e+01 3.14515991e+01 3.38709984e+01 6.04838982e+01
      2.90323009e+01 8.95160980e+01 3.38709984e+01 1.16128998e+02
      4.59677010e+01 1.47580994e+02 4.59677010e+01 1.74194000e+02
      3.38709984e+01 2.03225998e+02 3.14515991e+01 2.32257996e+02
      3.87097015e+01 2.49194000e+02 6.04838982e+01 1.30645004e+02 75.
      1.28225998e+02 9.67742004e+01 1.25806000e+02 1.18547997e+02
      1.23387001e+02 1.40322998e+02 9.43547974e+01 1.62097000e+02
      1.11290001e+02 1.64516006e+02 1.25806000e+02 1.69354996e+02
      1.42742004e+02 1.66934998e+02 1.59677002e+02 1.62097000e+02
      4.59677010e+01 7.74194031e+01 6.04838982e+01 75. 75. 75.
      9.19355011e+01 7.98386993e+01 75. 8.22581024e+01 5.80644989e+01
      8.22581024e+01 1.71774002e+02 8.22581024e+01 1.86289993e+02
      7.74194031e+01 2.03225998e+02 7.74194031e+01 2.17742004e+02
      8.22581024e+01 2.03225998e+02 8.46773987e+01 1.86289993e+02
      8.46773987e+01 6.53226013e+01 2.05645004e+02 8.70968018e+01
      1.93548004e+02 1.06452003e+02 1.88710007e+02 1.25806000e+02
      1.93548004e+02 1.42742004e+02 1.88710007e+02 1.64516006e+02
      1.93548004e+02 1.88710007e+02 2.03225998e+02 1.66934998e+02
      2.22580994e+02 1.45160995e+02 2.29839005e+02 1.25806000e+02
      2.32257996e+02 1.04031998e+02 2.29839005e+02 8.46773987e+01
      2.22580994e+02 7.25805969e+01 2.05645004e+02 1.06452003e+02
      2.03225998e+02 1.25806000e+02 2.05645004e+02 1.45160995e+02
      2.03225998e+02 1.79031998e+02 2.03225998e+02 1.45160995e+02
      2.05645004e+02 1.25806000e+02 2.08065002e+02 1.06452003e+02
      2.05645004e+02</_>
    <_>
      -4.83870983e+00 75. -7.25805998e+00 1.08871002e+02 -4.83870983e+00
      1.45160995e+02 -2.41934991e+00 1.79031998e+02 7.25805998e+00
      2.15322998e+02 2.66128998e+01 2.46774002e+02 5.32257996e+01
      2.73386993e+02 8.22581024e+01 2.92742004e+02 1.23387001e+02 300.
      1.64516006e+02 2.95161011e+02 2.00806000e+02 2.75806000e+02
      2.27419006e+02 2.49194000e+02 2.49194000e+02 2.17742004e+02
      2.58871002e+02 1.86289993e+02 2.63709991e+02 1.52419006e+02
      2.68548004e+02 1.18547997e+02 2.68548004e+02 8.46773987e+01
      1.45160999e+01 5.56451988e+01 3.38709984e+01 3.62902985e+01
      6.04838982e+01 3.14515991e+01 8.95160980e+01 3.38709984e+01
      1.16128998e+02 4.59677010e+01 150. 4.59677010e+01 1.76613007e+02
      3.38709984e+01 2.05645004e+02 3.14515991e+01 2.32257996e+02
      3.87097015e+01 2.49194000e+02 6.04838982e+01 1.30645004e+02 75.
      1.28225998e+02 9.67742004e+01 1.25806000e+02 1.16128998e+02
      1.23387001e+02 1.40322998e+02 9.43547974e+01 1.62097000e+02
      1.11290001e+02 1.64516006e+02 1.25806000e+02 1.69354996e+02
      1.42742004e+02 1.66934998e+02 1.59677002e+02 1.62097000e+02
      4.59677010e+01 7.74194031e+01 6.04838982e+01 75. 75. 75.
      9.19355011e+01 7.98386993e+01 75. 8.22581024e+01 6.04838982e+01
      8.22581024e+01 1.71774002e+02 7.98386993e+01 1.86289993e+02
      7.74194031e+01 2.03225998e+02 7.74194031e+01 2.17742004e+02
      7.98386993e+01 2.03225998e+02 8.46773987e+01 1.86289993e+02
      8.46773987e+01 6.53226013e+01 2.05645004e+02 8.70968018e+01
      1.93548004e+02 1.06452003e+02 1.86289993e+02 1.25806000e+02
      1.93548004e+02 1.45160995e+02 1.88710007e+02 1.64516006e+02
      1.95968002e+02 1.88710007e+02 2.05645004e+02 1.66934998e+02
      2.22580994e+02 1.45160995e+02 2.29839005e+02 1.25806000e+02
      2.29839005e+02 1.06452003e+02 2.29839005e+02 8.46773987e+01
      2.22580994e+02 75. 2.05645004e+02 1.06452003e+02 2.03225998e+02
      1.25806000e+02 2.05645004e+02 1.45160995e+02 2.05645004e+02
      1.79031998e+02 2.05645004e+02 1.45160995e+02 2.05645004e+02
      1.25806000e+02 2.08065002e+02 1.06452003e+02 2.05645004e+02</_>
    <_>
      -4.83870983e+00 7.98386993e+01 -7.25805998e+00 1.13709999e+02
      -4.83870983e+00 1.47580994e+02 0. 1.83871002e+02 1.20967999e+01
      2.17742004e+02 3.14515991e+01 2.49194000e+02 5.80644989e+01
      2.73386993e+02 8.70968018e+01 2.95161011e+02 1.28225998e+02
      3.02419006e+02 1.69354996e+02 2.97580994e+02 2.00806000e+02
      2.73386993e+02 2.27419006e+02 2.46774002e+02 2.51613007e+02
      2.15322998e+02 2.63709991e+02 1.83871002e+02 2.68548004e+02 150.
      2.70967987e+02 1.16128998e+02 2.70967987e+02 8.46773987e+01
      1.20967999e+01 5.80644989e+01 3.14515991e+01 3.87097015e+01
      6.04838982e+01 3.38709984e+01 8.95160980e+01 3.87097015e+01
      1.16128998e+02 5.08064995e+01 1.54839005e+02 4.83871002e+01
      1.79031998e+02 3.87097015e+01 2.08065002e+02 3.62902985e+01
      2.34677002e+02 4.11290016e+01 2.51613007e+02 6.29031982e+01
      1.33065002e+02 7.98386993e+01 1.30645004e+02 1.01612999e+02
      1.28225998e+02 1.23387001e+02 1.28225998e+02 1.47580994e+02
      9.67742004e+01 1.66934998e+02 1.13709999e+02 1.71774002e+02
      1.28225998e+02 1.74194000e+02 1.45160995e+02 1.71774002e+02
      1.62097000e+02 1.69354996e+02 4.59677010e+01 8.22581024e+01
      6.04838982e+01 7.74194031e+01 7.74194031e+01 7.74194031e+01
      9.43547974e+01 8.46773987e+01 75. 8.70968018e+01 5.80644989e+01
      8.70968018e+01 1.71774002e+02 8.70968018e+01 1.88710007e+02
      7.98386993e+01 2.05645004e+02 7.98386993e+01 2.22580994e+02
      8.46773987e+01 2.05645004e+02 8.95160980e+01 1.88710007e+02
      8.95160980e+01 6.53226013e+01 2.08065002e+02 8.95160980e+01
      1.98386993e+02 1.11290001e+02 1.93548004e+02 1.28225998e+02
      1.98386993e+02 1.45160995e+02 1.93548004e+02 1.66934998e+02
      1.98386993e+02 1.93548004e+02 2.08065002e+02 1.69354996e+02
      2.27419006e+02 1.47580994e+02 2.34677002e+02 1.28225998e+02
      2.37097000e+02 1.08871002e+02 2.34677002e+02 8.70968018e+01
      2.27419006e+02 75. 2.10483994e+02 1.08871002e+02 2.08065002e+02
      1.28225998e+02 2.10483994e+02 1.45160995e+02 2.08065002e+02
      1.83871002e+02 2.10483994e+02 1.47580994e+02 2.12903000e+02
      1.28225998e+02 2.15322998e+02 1.08871002e+02 2.12903000e+02</_>
    <_>
      1.45160999e+01 8.95160980e+01 1.45160999e+01 1.23387001e+02
      2.17742004e+01 1.57257996e+02 2.66128998e+01 1.91128998e+02
      3.62902985e+01 225. 5.56451988e+01 2.54031998e+02 8.22581024e+01
      2.78226013e+02 1.13709999e+02 300. 1.52419006e+02 3.04838989e+02
      1.91128998e+02 2.95161011e+02 225. 2.70967987e+02 2.51613007e+02
      2.44354996e+02 2.75806000e+02 2.10483994e+02 2.85484009e+02
      1.76613007e+02 2.87903015e+02 1.42742004e+02 2.87903015e+02
      1.06452003e+02 2.87903015e+02 7.25805969e+01 1.93547993e+01
      7.25805969e+01 3.62902985e+01 5.08064995e+01 6.29031982e+01
      4.35484009e+01 9.19355011e+01 4.59677010e+01 1.20968002e+02
      5.56451988e+01 1.52419006e+02 5.08064995e+01 1.79031998e+02
      3.87097015e+01 2.08065002e+02 3.38709984e+01 2.37097000e+02
      3.62902985e+01 2.56451996e+02 5.80644989e+01 1.35483994e+02
      8.22581024e+01 1.33065002e+02 1.06452003e+02 1.33065002e+02
      1.28225998e+02 1.30645004e+02 1.52419006e+02 1.04031998e+02
      1.71774002e+02 1.18547997e+02 1.74194000e+02 1.35483994e+02
      1.79031998e+02 1.52419006e+02 1.74194000e+02 1.69354996e+02
      1.69354996e+02 5.32257996e+01 8.95160980e+01 6.77418976e+01
      8.46773987e+01 8.46773987e+01 8.46773987e+01 1.01612999e+02
      8.95160980e+01 8.46773987e+01 9.43547974e+01 6.77418976e+01
      9.43547974e+01 1.76613007e+02 8.70968018e+01 1.91128998e+02
      7.74194031e+01 2.08065002e+02 7.74194031e+01 225. 7.98386993e+01
      2.08065002e+02 8.70968018e+01 1.91128998e+02 8.70968018e+01
      8.22581024e+01 2.15322998e+02 1.01612999e+02 2.05645004e+02
      1.20968002e+02 1.98386993e+02 1.37903000e+02 2.03225998e+02
      1.57257996e+02 1.95968002e+02 1.81451996e+02 2.00806000e+02
      2.08065002e+02 2.08065002e+02 1.83871002e+02 2.27419006e+02
      1.59677002e+02 2.37097000e+02 1.40322998e+02 2.39516006e+02
      1.23387001e+02 2.39516006e+02 1.01612999e+02 2.32257996e+02
      8.95160980e+01 2.15322998e+02 1.20968002e+02 2.12903000e+02
      1.40322998e+02 2.12903000e+02 1.57257996e+02 2.10483994e+02
      1.95968002e+02 2.08065002e+02 1.57257996e+02 2.15322998e+02
      1.40322998e+02 2.17742004e+02 1.20968002e+02 2.15322998e+02</_>
    <_>
      3.14515991e+01 8.46773987e+01 2.90323009e+01 1.16128998e+02
      3.14515991e+01 1.52419006e+02 3.62902985e+01 1.86289993e+02
      4.83871002e+01 2.20160995e+02 6.77418976e+01 2.51613007e+02
      9.19355011e+01 2.78226013e+02 1.23387001e+02 300. 1.62097000e+02
      3.04838989e+02 2.03225998e+02 2.97580994e+02 2.37097000e+02
      2.73386993e+02 2.63709991e+02 2.44354996e+02 2.85484009e+02
      2.15322998e+02 2.97580994e+02 1.81451996e+02 3.02419006e+02
      1.47580994e+02 3.04838989e+02 1.11290001e+02 3.07257996e+02
      7.98386993e+01 4.35484009e+01 6.29031982e+01 6.04838982e+01
      4.11290016e+01 8.70968018e+01 3.87097015e+01 1.13709999e+02
      4.35484009e+01 1.40322998e+02 5.32257996e+01 1.76613007e+02
      5.32257996e+01 2.03225998e+02 4.11290016e+01 2.32257996e+02
      3.62902985e+01 2.58871002e+02 4.11290016e+01 2.78226013e+02
      6.04838982e+01 1.57257996e+02 8.22581024e+01 1.57257996e+02
      1.06452003e+02 1.54839005e+02 1.28225998e+02 1.54839005e+02
      1.52419006e+02 1.23387001e+02 1.71774002e+02 1.40322998e+02
      1.74194000e+02 1.57257996e+02 1.79031998e+02 1.71774002e+02
      1.74194000e+02 1.88710007e+02 1.71774002e+02 7.25805969e+01
      8.46773987e+01 8.70968018e+01 7.98386993e+01 1.04031998e+02
      8.22581024e+01 1.20968002e+02 8.95160980e+01 1.04031998e+02
      9.19355011e+01 8.70968018e+01 8.95160980e+01 1.98386993e+02
      8.95160980e+01 2.15322998e+02 7.98386993e+01 2.32257996e+02
      7.98386993e+01 2.49194000e+02 8.46773987e+01 2.32257996e+02
      8.95160980e+01 2.15322998e+02 9.19355011e+01 9.43547974e+01
      2.12903000e+02 1.16128998e+02 2.03225998e+02 1.37903000e+02
      1.95968002e+02 1.54839005e+02 2.00806000e+02 1.74194000e+02
      1.95968002e+02 1.98386993e+02 2.00806000e+02 2.22580994e+02
      2.10483994e+02 1.98386993e+02 2.29839005e+02 1.76613007e+02
      2.37097000e+02 1.57257996e+02 2.39516006e+02 1.37903000e+02
      2.37097000e+02 1.16128998e+02 2.29839005e+02 1.04031998e+02
      2.12903000e+02 1.37903000e+02 2.12903000e+02 1.54839005e+02
      2.12903000e+02 1.74194000e+02 2.12903000e+02 2.12903000e+02
      2.10483994e+02 1.76613007e+02 2.12903000e+02 1.57257996e+02
      2.15322998e+02 1.37903000e+02 2.15322998e+02</_>
    <_>
      1.20967999e+01 8.95160980e+01 1.20967999e+01 1.23387001e+02
      1.45160999e+01 1.57257996e+02 1.93547993e+01 1.91128998e+02
      2.90323009e+01 2.27419006e+02 4.83871002e+01 2.58871002e+02
      7.25805969e+01 2.83065002e+02 1.01612999e+02 3.07257996e+02
      1.40322998e+02 3.12096985e+02 1.79031998e+02 3.04838989e+02
      2.12903000e+02 2.83065002e+02 2.39516006e+02 2.58871002e+02
      2.61290009e+02 2.27419006e+02 2.73386993e+02 1.95968002e+02
      2.78226013e+02 1.62097000e+02 2.80644989e+02 1.28225998e+02
      2.83065002e+02 9.43547974e+01 3.14515991e+01 6.53226013e+01
      5.08064995e+01 4.59677010e+01 7.98386993e+01 4.35484009e+01
      1.06452003e+02 4.83871002e+01 1.33065002e+02 6.04838982e+01
      1.64516006e+02 6.04838982e+01 1.88710007e+02 5.08064995e+01
      2.17742004e+02 4.59677010e+01 2.44354996e+02 5.08064995e+01
      2.61290009e+02 7.01613007e+01 1.47580994e+02 8.95160980e+01
      1.45160995e+02 1.13709999e+02 1.42742004e+02 1.35483994e+02
      1.42742004e+02 1.57257996e+02 1.11290001e+02 1.76613007e+02
      1.25806000e+02 1.81451996e+02 1.42742004e+02 1.86289993e+02
      1.59677002e+02 1.81451996e+02 1.74194000e+02 1.79031998e+02
      6.04838982e+01 9.19355011e+01 7.74194031e+01 8.46773987e+01
      9.19355011e+01 8.70968018e+01 1.08871002e+02 9.43547974e+01
      9.19355011e+01 9.67742004e+01 75. 9.67742004e+01 1.86289993e+02
      9.67742004e+01 2.03225998e+02 8.95160980e+01 2.17742004e+02
      8.95160980e+01 2.34677002e+02 9.67742004e+01 2.17742004e+02
      9.91936035e+01 2.03225998e+02 9.91936035e+01 7.74194031e+01
      2.17742004e+02 1.01612999e+02 2.08065002e+02 1.25806000e+02
      2.03225998e+02 1.42742004e+02 2.08065002e+02 1.59677002e+02
      2.03225998e+02 1.81451996e+02 2.10483994e+02 2.05645004e+02
      2.20160995e+02 1.81451996e+02 2.37097000e+02 1.59677002e+02
      2.44354996e+02 1.40322998e+02 2.46774002e+02 1.20968002e+02
      2.44354996e+02 9.91936035e+01 2.37097000e+02 8.70968018e+01
      2.17742004e+02 1.23387001e+02 2.17742004e+02 1.42742004e+02
      2.20160995e+02 1.59677002e+02 2.17742004e+02 1.95968002e+02
      2.20160995e+02 1.59677002e+02 2.22580994e+02 1.40322998e+02 225.
      1.23387001e+02 2.22580994e+02</_>
    <_>
      4.02685013e+01 7.04698029e+01 3.82550011e+01 1.00670998e+02
      4.22818985e+01 1.28858994e+02 4.63087006e+01 1.59059998e+02
      5.43624001e+01 1.87248001e+02 6.84563980e+01 2.15436005e+02
      8.85905991e+01 2.35570007e+02 1.16778999e+02 2.53690994e+02
      1.48992996e+02 2.57717987e+02 1.83220993e+02 2.49664001e+02
      2.11408997e+02 2.29529999e+02 2.35570007e+02 2.05369003e+02
      2.51677994e+02 1.79195007e+02 2.61744995e+02 1.48992996e+02
      2.63757996e+02 1.18792000e+02 2.65772003e+02 8.85905991e+01
      2.67785004e+02 5.63758011e+01 4.63087006e+01 5.83893013e+01
      6.24160995e+01 4.22818985e+01 8.45637970e+01 3.82550011e+01
      1.06710999e+02 4.22818985e+01 1.28858994e+02 5.03356018e+01
      1.55033997e+02 4.83221016e+01 1.77181000e+02 3.82550011e+01
      2.01341995e+02 3.42281990e+01 2.25503006e+02 3.42281990e+01
      2.41610992e+02 5.03356018e+01 1.40940002e+02 7.24832001e+01
      1.40940002e+02 9.26174011e+01 1.38925995e+02 1.10737999e+02
      1.36912994e+02 1.30871994e+02 1.14764999e+02 1.46979996e+02
      1.26846001e+02 1.51007004e+02 1.40940002e+02 1.53020004e+02
      1.55033997e+02 1.51007004e+02 1.69128006e+02 1.46979996e+02
      7.24832001e+01 7.85234985e+01 8.45637970e+01 7.24832001e+01
      9.86576996e+01 7.44965973e+01 1.12751999e+02 7.85234985e+01
      9.86576996e+01 8.25503006e+01 8.45637970e+01 8.25503006e+01
      1.75167999e+02 7.65101013e+01 1.89261993e+02 7.04698029e+01
      2.03356003e+02 6.84563980e+01 2.17449997e+02 7.24832001e+01
      2.03356003e+02 7.65101013e+01 1.91274994e+02 7.85234985e+01
      9.26174011e+01 1.83220993e+02 1.10737999e+02 1.75167999e+02
      1.28858994e+02 1.69128006e+02 1.42953003e+02 1.73154007e+02
      1.57046997e+02 1.67113998e+02 1.75167999e+02 1.71141006e+02
      1.97315002e+02 1.79195007e+02 1.77181000e+02 1.93289001e+02
      1.61074005e+02 2.01341995e+02 1.44966003e+02 2.03356003e+02
      1.28858994e+02 2.03356003e+02 1.12751999e+02 1.97315002e+02
      1.00670998e+02 1.85235001e+02 1.28858994e+02 1.81207993e+02
      1.42953003e+02 1.83220993e+02 1.59059998e+02 1.81207993e+02
      1.89261993e+02 1.79195007e+02 1.59059998e+02 1.83220993e+02
      1.42953003e+02 1.85235001e+02 1.28858994e+02 1.83220993e+02</_>
    <_>
      3.22148018e+01 7.24832001e+01 3.22148018e+01 1.02684998e+02
      3.82550011e+01 1.32886002e+02 4.42952995e+01 1.61074005e+02
      5.23489990e+01 1.89261993e+02 6.44294968e+01 2.15436005e+02
      8.45637970e+01 2.35570007e+02 1.10737999e+02 2.53690994e+02
      1.42953003e+02 2.59731995e+02 1.77181000e+02 2.53690994e+02
      2.05369003e+02 2.35570007e+02 2.29529999e+02 2.15436005e+02
      2.47651001e+02 1.87248001e+02 2.59731995e+02 1.59059998e+02
      2.63757996e+02 1.26846001e+02 2.67785004e+02 9.46308975e+01
      2.71812012e+02 6.24160995e+01 3.82550011e+01 6.04026985e+01
      5.43624001e+01 4.42952995e+01 7.65101013e+01 4.02685013e+01
      1.00670998e+02 4.42952995e+01 1.22819000e+02 5.43624001e+01
      1.51007004e+02 4.83221016e+01 1.73154007e+02 3.82550011e+01
      1.97315002e+02 3.22148018e+01 2.21477005e+02 3.62416000e+01
      2.39597000e+02 5.03356018e+01 1.34899002e+02 7.44965973e+01
      1.34899002e+02 9.46308975e+01 1.32886002e+02 1.12751999e+02
      1.32886002e+02 1.32886002e+02 1.08724998e+02 1.46979996e+02
      1.22819000e+02 1.51007004e+02 1.36912994e+02 1.55033997e+02
      1.53020004e+02 1.51007004e+02 1.67113998e+02 1.44966003e+02
      6.44294968e+01 8.05369034e+01 7.65101013e+01 7.65101013e+01
      9.06039963e+01 7.65101013e+01 1.04697998e+02 8.05369034e+01
      9.06039963e+01 8.25503006e+01 7.65101013e+01 8.25503006e+01
      1.73154007e+02 7.65101013e+01 1.89261993e+02 7.24832001e+01
      2.01341995e+02 7.24832001e+01 2.17449997e+02 7.24832001e+01
      2.01341995e+02 7.65101013e+01 1.89261993e+02 7.85234985e+01
      9.46308975e+01 1.85235001e+02 1.10737999e+02 1.75167999e+02
      1.24832001e+02 1.69128006e+02 1.38925995e+02 1.73154007e+02
      1.53020004e+02 1.67113998e+02 1.69128006e+02 1.71141006e+02
      1.91274994e+02 1.79195007e+02 1.73154007e+02 1.93289001e+02
      1.57046997e+02 2.01341995e+02 1.40940002e+02 2.03356003e+02
      1.26846001e+02 2.03356003e+02 1.12751999e+02 1.99328995e+02
      1.00670998e+02 1.85235001e+02 1.24832001e+02 1.81207993e+02
      1.38925995e+02 1.81207993e+02 1.53020004e+02 1.79195007e+02
      1.85235001e+02 1.79195007e+02 1.55033997e+02 1.83220993e+02
      1.40940002e+02 1.87248001e+02 1.26846001e+02 1.85235001e+02</_>
    <_>
      3.22148018e+01 7.04698029e+01 3.22148018e+01 1.00670998e+02
      3.82550011e+01 1.32886002e+02 4.42952995e+01 1.63087006e+02
      5.43624001e+01 1.91274994e+02 7.04698029e+01 2.17449997e+02
      9.06039963e+01 2.37584000e+02 1.16778999e+02 2.55705002e+02
      1.48992996e+02 2.59731995e+02 1.81207993e+02 2.51677994e+02
      2.05369003e+02 2.31544006e+02 2.27516998e+02 2.07382996e+02
      2.45638000e+02 1.79195007e+02 2.55705002e+02 1.51007004e+02
      2.59731995e+02 1.20805000e+02 2.61744995e+02 8.85905991e+01
      2.63757996e+02 5.83893013e+01 4.22818985e+01 5.83893013e+01
      5.63758011e+01 4.22818985e+01 7.85234985e+01 4.02685013e+01
      1.00670998e+02 4.22818985e+01 1.22819000e+02 5.23489990e+01
      1.55033997e+02 4.83221016e+01 1.75167999e+02 3.82550011e+01
      1.97315002e+02 3.22148018e+01 2.19462997e+02 3.42281990e+01
      2.37584000e+02 5.03356018e+01 1.38925995e+02 7.44965973e+01
      1.36912994e+02 9.46308975e+01 1.36912994e+02 1.10737999e+02
      1.34899002e+02 1.30871994e+02 1.12751999e+02 1.48992996e+02
      1.24832001e+02 1.53020004e+02 1.38925995e+02 1.55033997e+02
      1.53020004e+02 1.51007004e+02 1.65100998e+02 1.46979996e+02
      6.64430008e+01 7.85234985e+01 8.05369034e+01 7.44965973e+01
      9.26174011e+01 7.44965973e+01 1.06710999e+02 8.05369034e+01
      9.46308975e+01 8.25503006e+01 8.05369034e+01 8.25503006e+01
      1.75167999e+02 7.65101013e+01 1.87248001e+02 7.04698029e+01
      2.01341995e+02 7.04698029e+01 2.15436005e+02 7.24832001e+01
      2.03356003e+02 7.65101013e+01 1.89261993e+02 7.85234985e+01
      9.26174011e+01 1.85235001e+02 1.08724998e+02 1.75167999e+02
      1.26846001e+02 1.69128006e+02 1.40940002e+02 1.73154007e+02
      1.55033997e+02 1.67113998e+02 1.73154007e+02 1.71141006e+02
      1.95302002e+02 1.79195007e+02 1.77181000e+02 1.93289001e+02
      1.59059998e+02 2.01341995e+02 1.42953003e+02 2.03356003e+02
      1.28858994e+02 2.03356003e+02 1.10737999e+02 1.99328995e+02
      9.86576996e+01 1.85235001e+02 1.26846001e+02 1.83220993e+02
      1.40940002e+02 1.83220993e+02 1.55033997e+02 1.81207993e+02
      1.87248001e+02 1.79195007e+02 1.57046997e+02 1.83220993e+02
      1.42953003e+02 1.85235001e+02 1.28858994e+02 1.85235001e+02</_>
    <_>
      3.62416000e+01 7.24832001e+01 3.62416000e+01 1.02684998e+02
      4.02685013e+01 1.32886002e+02 4.63087006e+01 1.63087006e+02
      5.43624001e+01 1.91274994e+02 7.04698029e+01 2.17449997e+02
      9.06039963e+01 2.37584000e+02 1.16778999e+02 2.55705002e+02
      1.48992996e+02 2.59731995e+02 1.83220993e+02 2.51677994e+02
      2.11408997e+02 2.31544006e+02 2.33557007e+02 2.07382996e+02
      2.51677994e+02 1.81207993e+02 2.61744995e+02 1.53020004e+02
      2.61744995e+02 1.20805000e+02 2.63757996e+02 9.06039963e+01
      2.63757996e+02 5.83893013e+01 4.22818985e+01 6.04026985e+01
      5.63758011e+01 4.42952995e+01 8.05369034e+01 4.02685013e+01
      1.04697998e+02 4.42952995e+01 1.26846001e+02 5.23489990e+01
      1.53020004e+02 4.83221016e+01 1.73154007e+02 3.82550011e+01
      1.99328995e+02 3.42281990e+01 2.21477005e+02 3.62416000e+01
      2.39597000e+02 5.03356018e+01 1.38925995e+02 7.44965973e+01
      1.38925995e+02 9.46308975e+01 1.36912994e+02 1.12751999e+02
      1.36912994e+02 1.32886002e+02 1.12751999e+02 1.48992996e+02
      1.26846001e+02 1.53020004e+02 1.40940002e+02 1.57046997e+02
      1.55033997e+02 1.53020004e+02 1.67113998e+02 1.46979996e+02
      6.84563980e+01 7.85234985e+01 8.25503006e+01 7.44965973e+01
      9.46308975e+01 7.65101013e+01 1.08724998e+02 8.05369034e+01
      9.46308975e+01 8.25503006e+01 8.05369034e+01 8.25503006e+01
      1.73154007e+02 7.85234985e+01 1.87248001e+02 7.24832001e+01
      2.01341995e+02 7.04698029e+01 2.15436005e+02 7.24832001e+01
      2.01341995e+02 7.85234985e+01 1.89261993e+02 7.85234985e+01
      9.46308975e+01 1.85235001e+02 1.12751999e+02 1.75167999e+02
      1.28858994e+02 1.69128006e+02 1.42953003e+02 1.73154007e+02
      1.59059998e+02 1.69128006e+02 1.75167999e+02 1.71141006e+02
      1.97315002e+02 1.79195007e+02 1.79195007e+02 1.95302002e+02
      1.61074005e+02 2.03356003e+02 1.44966003e+02 2.07382996e+02
      1.30871994e+02 2.05369003e+02 1.12751999e+02 2.01341995e+02
      1.00670998e+02 1.85235001e+02 1.28858994e+02 1.83220993e+02
      1.42953003e+02 1.85235001e+02 1.59059998e+02 1.83220993e+02
      1.89261993e+02 1.79195007e+02 1.59059998e+02 1.85235001e+02
      1.44966003e+02 1.87248001e+02 1.30871994e+02 1.85235001e+02</_>
    <_>
      4.02685013e+01 7.04698029e+01 4.22818985e+01 1.00670998e+02
      4.63087006e+01 1.30871994e+02 5.03356018e+01 1.59059998e+02
      5.83893013e+01 1.87248001e+02 7.24832001e+01 2.13423004e+02
      9.06039963e+01 2.31544006e+02 1.16778999e+02 2.49664001e+02
      1.46979996e+02 2.53690994e+02 1.77181000e+02 2.49664001e+02
      2.05369003e+02 2.33557007e+02 2.29529999e+02 2.11408997e+02
      2.47651001e+02 1.87248001e+02 2.57717987e+02 1.59059998e+02
      2.63757996e+02 1.28858994e+02 2.67785004e+02 9.66443024e+01
      2.71812012e+02 6.44294968e+01 4.83221016e+01 5.43624001e+01
      6.44294968e+01 3.82550011e+01 8.85905991e+01 3.62416000e+01
      1.10737999e+02 4.02685013e+01 1.32886002e+02 5.03356018e+01
      1.63087006e+02 4.83221016e+01 1.83220993e+02 3.82550011e+01
      2.07382996e+02 3.42281990e+01 2.29529999e+02 3.62416000e+01
      2.47651001e+02 5.23489990e+01 1.46979996e+02 7.24832001e+01
      1.44966003e+02 9.06039963e+01 1.44966003e+02 1.08724998e+02
      1.42953003e+02 1.28858994e+02 1.18792000e+02 1.44966003e+02
      1.32886002e+02 1.48992996e+02 1.44966003e+02 1.51007004e+02
      1.59059998e+02 1.46979996e+02 1.71141006e+02 1.42953003e+02
      7.44965973e+01 7.65101013e+01 8.85905991e+01 7.24832001e+01
      1.00670998e+02 7.24832001e+01 1.14764999e+02 7.65101013e+01
      1.00670998e+02 7.85234985e+01 8.65772018e+01 7.85234985e+01
      1.83220993e+02 7.65101013e+01 1.95302002e+02 7.04698029e+01
      2.09395996e+02 7.04698029e+01 2.23490005e+02 7.24832001e+01
      2.09395996e+02 7.85234985e+01 1.97315002e+02 7.85234985e+01
      1.06710999e+02 1.85235001e+02 1.20805000e+02 1.75167999e+02
      1.34899002e+02 1.69128006e+02 1.44966003e+02 1.73154007e+02
      1.57046997e+02 1.69128006e+02 1.75167999e+02 1.75167999e+02
      1.93289001e+02 1.83220993e+02 1.77181000e+02 1.95302002e+02
      1.61074005e+02 2.01341995e+02 1.46979996e+02 2.03356003e+02
      1.34899002e+02 2.03356003e+02 1.22819000e+02 1.99328995e+02
      1.12751999e+02 1.85235001e+02 1.34899002e+02 1.81207993e+02
      1.44966003e+02 1.83220993e+02 1.59059998e+02 1.81207993e+02
      1.85235001e+02 1.83220993e+02 1.59059998e+02 1.83220993e+02
      1.46979996e+02 1.85235001e+02 1.36912994e+02 1.83220993e+02</_>
    <_>
      3.62416000e+01 6.84563980e+01 3.62416000e+01 9.86576996e+01
      4.22818985e+01 1.30871994e+02 4.83221016e+01 1.61074005e+02
      5.43624001e+01 1.89261993e+02 7.04698029e+01 2.15436005e+02
      9.26174011e+01 2.33557007e+02 1.16778999e+02 2.51677994e+02
      1.48992996e+02 2.57717987e+02 1.81207993e+02 2.49664001e+02
      2.07382996e+02 2.31544006e+02 2.31544006e+02 2.09395996e+02
      2.49664001e+02 1.83220993e+02 2.59731995e+02 1.53020004e+02
      2.61744995e+02 1.22819000e+02 2.65772003e+02 9.26174011e+01
      2.67785004e+02 6.04026985e+01 4.83221016e+01 5.63758011e+01
      6.44294968e+01 4.02685013e+01 8.65772018e+01 3.82550011e+01
      1.10737999e+02 4.02685013e+01 1.32886002e+02 4.83221016e+01
      1.63087006e+02 4.63087006e+01 1.83220993e+02 3.82550011e+01
      2.07382996e+02 3.42281990e+01 2.29529999e+02 3.62416000e+01
      2.45638000e+02 5.23489990e+01 1.46979996e+02 7.24832001e+01
      1.44966003e+02 9.26174011e+01 1.44966003e+02 1.10737999e+02
      1.44966003e+02 1.30871994e+02 1.20805000e+02 1.44966003e+02
      1.32886002e+02 1.48992996e+02 1.44966003e+02 1.51007004e+02
      1.59059998e+02 1.48992996e+02 1.71141006e+02 1.44966003e+02
      7.24832001e+01 7.65101013e+01 8.65772018e+01 7.24832001e+01
      9.86576996e+01 7.24832001e+01 1.12751999e+02 7.65101013e+01
      9.86576996e+01 8.05369034e+01 8.65772018e+01 8.05369034e+01
      1.81207993e+02 7.65101013e+01 1.93289001e+02 7.24832001e+01
      2.07382996e+02 7.24832001e+01 2.21477005e+02 7.44965973e+01
      2.07382996e+02 7.85234985e+01 1.93289001e+02 7.85234985e+01
      9.86576996e+01 1.81207993e+02 1.16778999e+02 1.73154007e+02
      1.32886002e+02 1.67113998e+02 1.46979996e+02 1.73154007e+02
      1.61074005e+02 1.67113998e+02 1.79195007e+02 1.71141006e+02
      1.97315002e+02 1.79195007e+02 1.81207993e+02 1.97315002e+02
      1.63087006e+02 2.03356003e+02 1.48992996e+02 2.05369003e+02
      1.32886002e+02 2.03356003e+02 1.16778999e+02 1.99328995e+02
      1.06710999e+02 1.81207993e+02 1.32886002e+02 1.79195007e+02
      1.46979996e+02 1.81207993e+02 1.61074005e+02 1.79195007e+02
      1.89261993e+02 1.79195007e+02 1.63087006e+02 1.87248001e+02
      1.46979996e+02 1.89261993e+02 1.34899002e+02 1.87248001e+02</_>
    <_>
      4.02685013e+01 6.84563980e+01 4.02685013e+01 9.86576996e+01
      4.63087006e+01 1.28858994e+02 5.03356018e+01 1.57046997e+02
      5.83893013e+01 1.85235001e+02 7.04698029e+01 2.11408997e+02
      9.06039963e+01 2.29529999e+02 1.16778999e+02 2.45638000e+02
      1.46979996e+02 2.51677994e+02 1.79195007e+02 2.45638000e+02
      2.05369003e+02 2.29529999e+02 2.25503006e+02 2.07382996e+02
      2.41610992e+02 1.83220993e+02 2.51677994e+02 1.55033997e+02
      2.57717987e+02 1.26846001e+02 2.61744995e+02 9.66443024e+01
      2.61744995e+02 6.84563980e+01 5.03356018e+01 5.23489990e+01
      6.44294968e+01 3.82550011e+01 8.85905991e+01 3.62416000e+01
      1.10737999e+02 4.02685013e+01 1.32886002e+02 4.83221016e+01
      1.63087006e+02 4.83221016e+01 1.83220993e+02 3.82550011e+01
      2.05369003e+02 3.42281990e+01 2.27516998e+02 3.82550011e+01
      2.43623993e+02 5.23489990e+01 1.46979996e+02 7.04698029e+01
      1.44966003e+02 9.06039963e+01 1.44966003e+02 1.06710999e+02
      1.44966003e+02 1.26846001e+02 1.20805000e+02 1.42953003e+02
      1.32886002e+02 1.46979996e+02 1.44966003e+02 1.51007004e+02
      1.57046997e+02 1.46979996e+02 1.71141006e+02 1.42953003e+02
      7.44965973e+01 7.44965973e+01 8.65772018e+01 7.04698029e+01
      1.00670998e+02 7.04698029e+01 1.12751999e+02 7.65101013e+01
      9.86576996e+01 7.85234985e+01 8.65772018e+01 7.85234985e+01
      1.83220993e+02 7.65101013e+01 1.95302002e+02 7.04698029e+01
      2.07382996e+02 7.04698029e+01 2.21477005e+02 7.44965973e+01
      2.09395996e+02 7.85234985e+01 1.95302002e+02 7.85234985e+01
      1.08724998e+02 1.89261993e+02 1.24832001e+02 1.85235001e+02
      1.36912994e+02 1.79195007e+02 1.48992996e+02 1.83220993e+02
      1.61074005e+02 1.79195007e+02 1.73154007e+02 1.83220993e+02
      1.89261993e+02 1.87248001e+02 1.75167999e+02 1.95302002e+02
      1.61074005e+02 1.99328995e+02 1.48992996e+02 1.99328995e+02
      1.36912994e+02 1.99328995e+02 1.24832001e+02 1.99328995e+02
      1.14764999e+02 1.91274994e+02 1.36912994e+02 1.91274994e+02
      1.48992996e+02 1.93289001e+02 1.61074005e+02 1.91274994e+02
      1.83220993e+02 1.87248001e+02 1.61074005e+02 1.81207993e+02
      1.48992996e+02 1.81207993e+02 1.36912994e+02 1.81207993e+02</_>
    <_>
      1.20967999e+01 9.91936035e+01 1.20967999e+01 1.30645004e+02
      1.45160999e+01 1.64516006e+02 1.93547993e+01 1.98386993e+02
      2.90323009e+01 2.32257996e+02 5.08064995e+01 2.61290009e+02
      7.25805969e+01 2.87903015e+02 1.04031998e+02 3.07257996e+02
      1.40322998e+02 3.14515991e+02 1.81451996e+02 3.07257996e+02
      2.15322998e+02 2.83065002e+02 2.41934998e+02 2.56451996e+02
      2.63709991e+02 225. 2.75806000e+02 1.93548004e+02 2.80644989e+02
      1.59677002e+02 2.83065002e+02 1.25806000e+02 2.83065002e+02
      9.43547974e+01 2.41935005e+01 7.25805969e+01 4.11290016e+01
      5.08064995e+01 6.77418976e+01 4.59677010e+01 9.67742004e+01
      5.08064995e+01 1.23387001e+02 6.29031982e+01 1.57257996e+02
      6.04838982e+01 1.83871002e+02 4.83871002e+01 2.12903000e+02
      4.59677010e+01 2.41934998e+02 5.08064995e+01 2.58871002e+02
      7.25805969e+01 1.37903000e+02 8.95160980e+01 1.35483994e+02
      1.13709999e+02 1.35483994e+02 1.35483994e+02 1.33065002e+02
      1.59677002e+02 1.04031998e+02 1.79031998e+02 1.18547997e+02
      1.83871002e+02 1.35483994e+02 1.86289993e+02 1.52419006e+02
      1.83871002e+02 1.69354996e+02 1.79031998e+02 5.56451988e+01
      9.43547974e+01 6.77418976e+01 8.70968018e+01 8.46773987e+01
      8.95160980e+01 1.01612999e+02 9.67742004e+01 8.46773987e+01
      9.91936035e+01 6.77418976e+01 9.91936035e+01 1.79031998e+02
      9.67742004e+01 1.93548004e+02 8.95160980e+01 2.10483994e+02
      8.95160980e+01 2.27419006e+02 9.43547974e+01 2.10483994e+02
      9.91936035e+01 1.95968002e+02 9.91936035e+01 7.25805969e+01
      2.22580994e+02 9.43547974e+01 2.10483994e+02 1.16128998e+02
      2.05645004e+02 1.35483994e+02 2.10483994e+02 1.54839005e+02
      2.05645004e+02 1.76613007e+02 2.10483994e+02 2.03225998e+02
      2.20160995e+02 1.79031998e+02 2.37097000e+02 1.57257996e+02
      2.46774002e+02 1.35483994e+02 2.46774002e+02 1.16128998e+02
      2.46774002e+02 9.43547974e+01 2.39516006e+02 8.22581024e+01
      2.22580994e+02 1.16128998e+02 2.20160995e+02 1.35483994e+02
      2.22580994e+02 1.54839005e+02 2.20160995e+02 1.93548004e+02
      2.20160995e+02 1.54839005e+02 225. 1.35483994e+02 2.27419006e+02
      1.16128998e+02 225.</_>
    <_>
      2.17742004e+01 8.95160980e+01 2.17742004e+01 1.23387001e+02
      2.41935005e+01 1.57257996e+02 3.14515991e+01 1.93548004e+02
      4.11290016e+01 2.27419006e+02 6.04838982e+01 2.58871002e+02
      8.46773987e+01 2.85484009e+02 1.18547997e+02 3.04838989e+02
      1.57257996e+02 3.12096985e+02 1.98386993e+02 3.07257996e+02
      2.32257996e+02 2.85484009e+02 2.58871002e+02 2.58871002e+02
      2.80644989e+02 2.27419006e+02 2.92742004e+02 1.95968002e+02 300.
      1.62097000e+02 3.02419006e+02 1.28225998e+02 3.02419006e+02
      9.67742004e+01 4.35484009e+01 7.01613007e+01 6.04838982e+01
      4.83871002e+01 8.95160980e+01 4.35484009e+01 1.18547997e+02
      4.83871002e+01 1.45160995e+02 6.04838982e+01 1.81451996e+02
      5.80644989e+01 2.05645004e+02 4.83871002e+01 2.34677002e+02
      4.35484009e+01 2.63709991e+02 5.08064995e+01 2.80644989e+02
      7.01613007e+01 1.59677002e+02 8.70968018e+01 1.59677002e+02
      1.11290001e+02 1.57257996e+02 1.33065002e+02 1.57257996e+02
      1.54839005e+02 1.25806000e+02 1.76613007e+02 1.40322998e+02
      1.79031998e+02 1.57257996e+02 1.83871002e+02 1.74194000e+02
      1.81451996e+02 1.88710007e+02 1.79031998e+02 7.25805969e+01
      9.19355011e+01 8.95160980e+01 8.46773987e+01 1.06452003e+02
      8.70968018e+01 1.20968002e+02 9.43547974e+01 1.04031998e+02
      9.67742004e+01 8.95160980e+01 9.43547974e+01 2.00806000e+02
      9.67742004e+01 2.17742004e+02 8.70968018e+01 2.34677002e+02
      8.70968018e+01 2.49194000e+02 9.43547974e+01 2.34677002e+02
      9.91936035e+01 2.17742004e+02 9.91936035e+01 9.19355011e+01
      2.20160995e+02 1.16128998e+02 2.08065002e+02 1.37903000e+02
      2.00806000e+02 1.54839005e+02 2.08065002e+02 1.74194000e+02
      2.00806000e+02 1.95968002e+02 2.08065002e+02 2.20160995e+02
      2.20160995e+02 1.98386993e+02 2.37097000e+02 1.76613007e+02
      2.44354996e+02 1.54839005e+02 2.46774002e+02 1.35483994e+02
      2.44354996e+02 1.16128998e+02 2.37097000e+02 1.01612999e+02
      2.20160995e+02 1.37903000e+02 2.17742004e+02 1.54839005e+02
      2.20160995e+02 1.74194000e+02 2.17742004e+02 2.10483994e+02
      2.20160995e+02 1.74194000e+02 2.20160995e+02 1.54839005e+02
      2.22580994e+02 1.37903000e+02 2.20160995e+02</_>
    <_>
      2.17742004e+01 9.19355011e+01 2.17742004e+01 1.23387001e+02
      2.66128998e+01 1.59677002e+02 3.14515991e+01 1.93548004e+02
      4.11290016e+01 2.27419006e+02 6.04838982e+01 2.58871002e+02
      8.70968018e+01 2.85484009e+02 1.18547997e+02 3.04838989e+02
      1.57257996e+02 3.12096985e+02 1.95968002e+02 3.07257996e+02
      2.29839005e+02 2.87903015e+02 2.56451996e+02 2.61290009e+02
      2.78226013e+02 2.29839005e+02 2.90322998e+02 1.98386993e+02
      2.97580994e+02 1.62097000e+02 300. 1.28225998e+02 300.
      9.67742004e+01 4.35484009e+01 6.77418976e+01 6.04838982e+01
      4.83871002e+01 8.95160980e+01 4.35484009e+01 1.16128998e+02
      4.83871002e+01 1.42742004e+02 6.04838982e+01 1.81451996e+02
      6.04838982e+01 2.05645004e+02 4.83871002e+01 2.32257996e+02
      4.59677010e+01 2.61290009e+02 5.08064995e+01 2.78226013e+02
      7.01613007e+01 1.59677002e+02 8.70968018e+01 1.59677002e+02
      1.11290001e+02 1.57257996e+02 1.33065002e+02 1.57257996e+02
      1.57257996e+02 1.25806000e+02 1.76613007e+02 1.40322998e+02
      1.79031998e+02 1.57257996e+02 1.83871002e+02 1.74194000e+02
      1.81451996e+02 1.88710007e+02 1.79031998e+02 7.25805969e+01
      9.19355011e+01 8.95160980e+01 8.70968018e+01 1.04031998e+02
      8.70968018e+01 1.20968002e+02 9.43547974e+01 1.04031998e+02
      9.67742004e+01 8.70968018e+01 9.43547974e+01 2.00806000e+02
      9.67742004e+01 2.17742004e+02 8.95160980e+01 2.34677002e+02
      8.95160980e+01 2.49194000e+02 9.43547974e+01 2.34677002e+02
      9.91936035e+01 2.17742004e+02 9.91936035e+01 9.43547974e+01
      2.20160995e+02 1.16128998e+02 2.08065002e+02 1.37903000e+02
      2.03225998e+02 1.54839005e+02 2.08065002e+02 1.74194000e+02
      2.03225998e+02 1.95968002e+02 2.10483994e+02 2.20160995e+02
      2.22580994e+02 1.95968002e+02 2.37097000e+02 1.74194000e+02
      2.44354996e+02 1.54839005e+02 2.46774002e+02 1.35483994e+02
      2.44354996e+02 1.16128998e+02 2.37097000e+02 1.04031998e+02
      2.20160995e+02 1.37903000e+02 2.20160995e+02 1.54839005e+02
      2.22580994e+02 1.74194000e+02 2.20160995e+02 2.10483994e+02
      2.22580994e+02 1.74194000e+02 2.22580994e+02 1.54839005e+02
      2.22580994e+02 1.37903000e+02 2.20160995e+02</_>
    <_>
      1.93547993e+01 9.67742004e+01 1.93547993e+01 1.30645004e+02
      2.41935005e+01 1.64516006e+02 2.90323009e+01 2.00806000e+02
      3.87097015e+01 2.34677002e+02 5.80644989e+01 2.63709991e+02
      8.46773987e+01 2.87903015e+02 1.16128998e+02 3.07257996e+02
      1.57257996e+02 3.14515991e+02 1.95968002e+02 3.07257996e+02
      2.29839005e+02 2.85484009e+02 2.56451996e+02 2.58871002e+02
      2.78226013e+02 2.27419006e+02 2.90322998e+02 1.95968002e+02
      2.95161011e+02 1.62097000e+02 300. 1.25806000e+02 300.
      9.43547974e+01 3.62902985e+01 7.25805969e+01 5.56451988e+01
      5.08064995e+01 8.46773987e+01 4.59677010e+01 1.11290001e+02
      5.08064995e+01 1.37903000e+02 6.04838982e+01 1.71774002e+02
      6.04838982e+01 1.98386993e+02 4.83871002e+01 2.27419006e+02
      4.35484009e+01 2.56451996e+02 5.08064995e+01 2.75806000e+02
      7.01613007e+01 1.54839005e+02 8.95160980e+01 1.52419006e+02
      1.11290001e+02 1.52419006e+02 1.33065002e+02 1.52419006e+02
      1.57257996e+02 1.20968002e+02 1.76613007e+02 1.35483994e+02
      1.81451996e+02 1.52419006e+02 1.86289993e+02 1.69354996e+02
      1.81451996e+02 1.83871002e+02 1.79031998e+02 6.77418976e+01
      9.19355011e+01 8.46773987e+01 8.70968018e+01 9.91936035e+01
      8.70968018e+01 1.16128998e+02 9.43547974e+01 9.91936035e+01
      9.67742004e+01 8.22581024e+01 9.67742004e+01 1.95968002e+02
      9.43547974e+01 2.12903000e+02 8.70968018e+01 2.27419006e+02
      8.70968018e+01 2.44354996e+02 9.19355011e+01 2.27419006e+02
      9.67742004e+01 2.12903000e+02 9.67742004e+01 9.19355011e+01
      2.20160995e+02 1.13709999e+02 2.08065002e+02 1.35483994e+02
      2.03225998e+02 1.52419006e+02 2.08065002e+02 1.69354996e+02
      2.03225998e+02 1.93548004e+02 2.10483994e+02 2.15322998e+02
      2.22580994e+02 1.93548004e+02 2.39516006e+02 1.71774002e+02
      2.46774002e+02 1.52419006e+02 2.46774002e+02 1.33065002e+02
      2.46774002e+02 1.11290001e+02 2.39516006e+02 9.91936035e+01
      2.22580994e+02 1.33065002e+02 2.17742004e+02 1.52419006e+02
      2.20160995e+02 1.71774002e+02 2.20160995e+02 2.08065002e+02
      2.22580994e+02 1.71774002e+02 2.22580994e+02 1.52419006e+02 225.
      1.33065002e+02 2.22580994e+02</_>
    <_>
      1.45160999e+01 9.43547974e+01 1.45160999e+01 1.28225998e+02
      1.93547993e+01 1.62097000e+02 2.66128998e+01 1.95968002e+02
      3.62902985e+01 2.29839005e+02 5.56451988e+01 2.63709991e+02
      7.98386993e+01 2.87903015e+02 1.11290001e+02 3.09677002e+02 150.
      3.14515991e+02 1.88710007e+02 3.04838989e+02 2.22580994e+02
      2.80644989e+02 2.51613007e+02 2.51613007e+02 2.73386993e+02
      2.17742004e+02 2.83065002e+02 1.83871002e+02 2.87903015e+02
      1.47580994e+02 2.90322998e+02 1.13709999e+02 2.90322998e+02
      7.98386993e+01 2.66128998e+01 7.25805969e+01 4.35484009e+01
      5.32257996e+01 7.01613007e+01 4.83871002e+01 9.67742004e+01
      5.08064995e+01 1.23387001e+02 6.04838982e+01 1.59677002e+02
      5.80644989e+01 1.83871002e+02 4.59677010e+01 2.12903000e+02
      4.11290016e+01 2.41934998e+02 4.59677010e+01 2.61290009e+02
      6.53226013e+01 1.40322998e+02 8.95160980e+01 1.40322998e+02
      1.13709999e+02 1.37903000e+02 1.35483994e+02 1.37903000e+02
      1.59677002e+02 1.08871002e+02 1.79031998e+02 1.25806000e+02
      1.81451996e+02 1.40322998e+02 1.86289993e+02 1.57257996e+02
      1.81451996e+02 1.74194000e+02 1.79031998e+02 5.56451988e+01
      9.67742004e+01 7.01613007e+01 8.95160980e+01 8.70968018e+01
      8.95160980e+01 1.04031998e+02 9.67742004e+01 8.70968018e+01
      9.91936035e+01 7.01613007e+01 9.91936035e+01 1.81451996e+02
      9.43547974e+01 1.98386993e+02 8.70968018e+01 2.15322998e+02
      8.46773987e+01 2.32257996e+02 8.95160980e+01 2.17742004e+02
      9.43547974e+01 1.98386993e+02 9.43547974e+01 7.98386993e+01
      2.22580994e+02 1.01612999e+02 2.10483994e+02 1.23387001e+02
      2.05645004e+02 1.40322998e+02 2.10483994e+02 1.59677002e+02
      2.03225998e+02 1.81451996e+02 2.10483994e+02 2.08065002e+02
      2.17742004e+02 1.83871002e+02 2.37097000e+02 1.62097000e+02
      2.46774002e+02 1.40322998e+02 2.49194000e+02 1.20968002e+02
      2.46774002e+02 1.01612999e+02 2.41934998e+02 8.70968018e+01
      2.22580994e+02 1.23387001e+02 2.20160995e+02 1.40322998e+02
      2.22580994e+02 1.59677002e+02 2.20160995e+02 1.95968002e+02
      2.20160995e+02 1.59677002e+02 2.22580994e+02 1.40322998e+02 225.
      1.20968002e+02 225.</_>
    <_>
      2.41935005e+01 9.43547974e+01 2.41935005e+01 1.28225998e+02
      2.66128998e+01 1.62097000e+02 3.14515991e+01 1.98386993e+02
      4.35484009e+01 2.32257996e+02 6.29031982e+01 2.61290009e+02
      8.70968018e+01 2.87903015e+02 1.20968002e+02 3.09677002e+02
      1.59677002e+02 3.16934998e+02 1.98386993e+02 3.09677002e+02
      2.32257996e+02 2.85484009e+02 2.58871002e+02 2.61290009e+02
      2.80644989e+02 2.27419006e+02 2.95161011e+02 1.95968002e+02
      3.02419006e+02 1.59677002e+02 3.04838989e+02 1.25806000e+02
      3.07257996e+02 9.19355011e+01 4.11290016e+01 7.25805969e+01
      5.80644989e+01 5.08064995e+01 8.70968018e+01 4.59677010e+01
      1.13709999e+02 5.08064995e+01 1.40322998e+02 6.04838982e+01
      1.76613007e+02 6.04838982e+01 2.03225998e+02 4.83871002e+01
      2.32257996e+02 4.59677010e+01 2.58871002e+02 5.08064995e+01
      2.78226013e+02 7.01613007e+01 1.57257996e+02 8.95160980e+01
      1.57257996e+02 1.13709999e+02 1.54839005e+02 1.35483994e+02
      1.52419006e+02 1.59677002e+02 1.23387001e+02 1.79031998e+02
      1.37903000e+02 1.81451996e+02 1.54839005e+02 1.88710007e+02
      1.71774002e+02 1.83871002e+02 1.86289993e+02 1.81451996e+02
      7.25805969e+01 9.43547974e+01 8.70968018e+01 8.95160980e+01
      1.01612999e+02 8.95160980e+01 1.18547997e+02 9.67742004e+01
      1.01612999e+02 9.91936035e+01 8.70968018e+01 9.67742004e+01
      1.98386993e+02 9.67742004e+01 2.15322998e+02 8.95160980e+01
      2.29839005e+02 8.95160980e+01 2.46774002e+02 9.43547974e+01
      2.32257996e+02 9.91936035e+01 2.15322998e+02 9.91936035e+01
      9.19355011e+01 2.22580994e+02 1.13709999e+02 2.10483994e+02
      1.35483994e+02 2.03225998e+02 1.54839005e+02 2.10483994e+02
      1.71774002e+02 2.05645004e+02 1.95968002e+02 2.12903000e+02
      2.22580994e+02 2.22580994e+02 1.98386993e+02 2.41934998e+02
      1.74194000e+02 2.49194000e+02 1.54839005e+02 2.51613007e+02
      1.35483994e+02 2.49194000e+02 1.13709999e+02 2.39516006e+02
      1.01612999e+02 2.22580994e+02 1.35483994e+02 2.20160995e+02
      1.54839005e+02 2.22580994e+02 1.74194000e+02 2.22580994e+02
      2.12903000e+02 2.22580994e+02 1.74194000e+02 225. 1.54839005e+02
      2.27419006e+02 1.35483994e+02 225.</_>
    <_>
      2.17742004e+01 9.19355011e+01 2.17742004e+01 1.25806000e+02
      2.66128998e+01 1.59677002e+02 3.14515991e+01 1.93548004e+02
      3.87097015e+01 2.27419006e+02 5.80644989e+01 2.58871002e+02
      8.22581024e+01 2.85484009e+02 1.13709999e+02 3.07257996e+02
      1.54839005e+02 3.14515991e+02 1.93548004e+02 3.09677002e+02
      2.27419006e+02 2.85484009e+02 2.54031998e+02 2.58871002e+02
      2.78226013e+02 225. 2.92742004e+02 1.93548004e+02 300.
      1.59677002e+02 3.02419006e+02 1.25806000e+02 3.04838989e+02
      9.19355011e+01 3.87097015e+01 6.77418976e+01 5.80644989e+01
      4.83871002e+01 8.46773987e+01 4.59677010e+01 1.13709999e+02
      5.08064995e+01 1.40322998e+02 6.04838982e+01 1.76613007e+02
      6.04838982e+01 2.03225998e+02 4.83871002e+01 2.32257996e+02
      4.59677010e+01 2.61290009e+02 5.08064995e+01 2.80644989e+02
      7.25805969e+01 1.57257996e+02 8.95160980e+01 1.54839005e+02
      1.13709999e+02 1.54839005e+02 1.35483994e+02 1.52419006e+02
      1.59677002e+02 1.20968002e+02 1.79031998e+02 1.37903000e+02
      1.83871002e+02 1.54839005e+02 1.88710007e+02 1.71774002e+02
      1.83871002e+02 1.86289993e+02 1.81451996e+02 7.01613007e+01
      9.19355011e+01 8.70968018e+01 8.70968018e+01 1.01612999e+02
      8.95160980e+01 1.16128998e+02 9.43547974e+01 1.01612999e+02
      9.67742004e+01 8.46773987e+01 9.67742004e+01 1.98386993e+02
      9.67742004e+01 2.15322998e+02 8.95160980e+01 2.29839005e+02
      9.19355011e+01 2.46774002e+02 9.43547974e+01 2.32257996e+02
      9.91936035e+01 2.15322998e+02 9.91936035e+01 9.19355011e+01
      2.22580994e+02 1.13709999e+02 2.10483994e+02 1.35483994e+02
      2.05645004e+02 1.52419006e+02 2.10483994e+02 1.71774002e+02
      2.05645004e+02 1.95968002e+02 2.12903000e+02 2.20160995e+02
      2.22580994e+02 1.95968002e+02 2.41934998e+02 1.71774002e+02
      2.49194000e+02 1.52419006e+02 2.49194000e+02 1.33065002e+02
      2.49194000e+02 1.11290001e+02 2.39516006e+02 9.91936035e+01
      2.22580994e+02 1.35483994e+02 2.20160995e+02 1.52419006e+02
      2.22580994e+02 1.71774002e+02 2.22580994e+02 2.10483994e+02
      2.22580994e+02 1.71774002e+02 225. 1.52419006e+02 2.27419006e+02
      1.35483994e+02 225.</_>
    <_>
      2.41935005e+01 8.95160980e+01 2.41935005e+01 1.23387001e+02
      2.66128998e+01 1.57257996e+02 3.14515991e+01 1.93548004e+02
      4.11290016e+01 2.27419006e+02 6.29031982e+01 2.61290009e+02
